tree
version=v4
num_class=1
num_tree_per_iteration=1
label_index=0
max_feature_idx=13
objective=binary sigmoid:1
feature_names=user_total_orders user_avg_days_between_orders user_total_products user_total_reorders user_reorder_rate user_avg_basket_size product_total_purchases product_total_reorders product_unique_users product_reorder_probability up_order_count up_reorder_count up_reorder_rate up_orders_since_last
feature_infos=[3:99] [0:30] [3:3638] [0:3167] [0:0.96808510638297884] [1:70.25] [2:472565] [0:398609] [2:73956] [0:0.94117647058823517] [1:84] [0:83] [0:0.98809523809523803] [1:99]
tree_sizes=3462 3508 3510 3502 3527 3527 3520 3528 3544 3538 3549 3540 3561 3540 3553 3529 3543 3539 3540 3526 3541 3547 3550 3534 3541 3538 3520 3543 3540 3526 3530 3543 3546 3537 3555 3556 3558 3549 3546 3540 3549 3559 3553 3546 3559 3563 3548 3567 3572 3553 3566 3563 3567 3561 3568 3560 3567 3582 3583 3568 3576 3581 3573 3587 3597 3586 3582 3569 3590 3595 3575 3588 3608 3584 3602 3585 3612 3591 3595 3573 3607 3591 3583 3614 3604 3589 3607 3606 3610 3602 3612 3615 3598 3586 3607 3614 3619 3620 3603 3595

Tree=0
num_leaves=31
num_cat=0
split_feature=13 10 13 10 10 13 13 10 10 13 7 7 13 7 0 13 0 13 10 7 10 7 13 13 7 0 6 10 7 13
split_gain=5.08034e+06 1.20298e+06 632604 334284 162794 121738 88244.4 87261.1 69175.3 59918.3 53773.5 50208 49990 30097.2 28962.2 27271.6 26089.7 20208.4 15628.4 15614.9 14249.9 13845.4 13764 12371.3 11911.7 11543.2 9425.81 8628.81 8151.75 7858.63
threshold=3.5000000000000004 1.5000000000000002 8.5000000000000018 1.5000000000000002 3.5000000000000004 1.5000000000000002 1.5000000000000002 1.5000000000000002 4.5000000000000009 16.500000000000004 3906.0000000000005 6344.5000000000009 1.5000000000000002 3735.0000000000005 7.5000000000000009 16.500000000000004 9.5000000000000018 5.5000000000000009 3.5000000000000004 6657.0000000000009 7.5000000000000009 331.50000000000006 5.5000000000000009 5.5000000000000009 24834.000000000004 17.500000000000004 72837.500000000015 2.5000000000000004 289.50000000000006 30.500000000000004
decision_type=2 2 2 2 2 2 2 2 2 2 2 2 2 2 2 2 2 2 2 2 2 2 2 2 2 2 2 2 2 2
left_child=1 5 3 11 6 13 14 15 17 18 21 22 -6 28 27 19 -8 -5 -9 -4 25 -7 -2 -10 -12 -14 -13 -3 -1 -11
right_child=2 4 7 8 12 10 16 9 23 29 24 26 20 -15 -16 -17 -18 -19 -20 -21 -22 -23 -24 -25 -26 -27 -28 -29 -30 -31
leaf_value=-2.0072270016344755 -2.1206445293037111 -1.8214596947461712 -2.2019722837888476 -1.9900480243908989 -1.7727641047289369 -2.0986801852358243 -1.8791895495314757 -2.1237982152955945 -1.8911024612790155 -2.172940166885923 -2.00809656289595 -2.0807178344577348 -1.8236067470614392 -1.9053411872755683 -1.8640380604517213 -2.232999472775627 -1.9447817313486644 -2.0494513097910136 -2.05732061175889 -2.1453551340284158 -1.8011258792752018 -2.0455494460200172 -2.1633178669016888 -1.961307115372279 -1.9498128589999055 -1.8807634966204527 -2.0151288221397432 -1.7752101392553257 -1.9571627525745328 -2.2230167654007871
leaf_weight=11877.358462870121 39390.408911138773 23476.2761272192 48077.939579099417 32183.871503531933 110861.48189255595 18873.636299908161 31403.015110760927 24723.85166400671 15959.623303383589 21352.221954494715 23172.213627398014 24556.343904435635 19583.154334068298 29239.754381328821 33830.083651065826 68219.883166700602 29309.88208180666 25789.388772040606 13762.416684359312 16309.349437445402 26771.123432159424 35001.688543438911 36318.378802120686 10341.145751446486 14100.975702017546 16092.226912498474 7050.3749139308929 17680.02904433012 25776.672272115946 12375.427616119385
leaf_count=77407 336375 75237 480282 199890 259031 153780 132966 212520 70966 202248 151377 192217 63510 137441 134103 719235 158383 187491 101985 146460 76090 252030 337776 58928 77463 68589 46942 42081 144981 128270
internal_value=-1.99415 -1.88242 -2.1258 -2.06049 -1.82503 -1.99463 -1.86604 -2.18689 -1.98596 -2.14266 -2.03222 -2.11902 -1.79292 -1.9434 -1.82976 -2.21097 -1.91085 -2.01647 -2.10003 -2.18763 -1.8287 -2.06416 -2.14112 -1.91871 -1.98605 -1.84939 -2.06609 -1.80159 -1.97295 -2.19131
internal_weight=863460 467050 396411 191590 309007 158042 135699 204821 84274 72213.9 91148.5 107316 173308 66893.8 74986.4 132607 60712.9 57973.3 38486.3 64387.3 62446.5 53875.3 75708.8 26300.8 37273.2 35675.4 31606.7 41156.3 37654 33727.6
internal_count=5426054 2004469 3421585 1430585 1009990 994479 542770 1991000 517275 645023 634650 913310 467220 359829 251421 1345977 291349 387381 314505 626742 208189 405810 674151 129894 228840 132099 239159 117318 222388 330518
is_linear=0
shrinkage=1


Tree=1
num_leaves=31
num_cat=0
split_feature=13 10 13 10 9 13 13 10 9 9 9 10 13 10 10 9 13 6 10 6 9 13 13 13 10 0 13 9 10 13
split_gain=2.68412e+06 611401 288072 152292 149625 98204.7 61326.8 44801.5 44689.9 31110.1 29128.9 29044.9 26596.1 25977.5 21364.3 20432.4 15262.1 14465.2 13860.4 13581.2 11181.3 9166.57 8484.94 8288.07 7874.21 7507.12 7467.82 7147.73 6985.28 6407.99
threshold=4.5000000000000009 1.5000000000000002 10.500000000000002 1.5000000000000002 0.47851081203501195 2.5000000000000004 2.5000000000000004 1.5000000000000002 0.57529105184784102 0.43785548578502193 0.28464418895007526 3.5000000000000004 19.500000000000004 2.5000000000000004 2.5000000000000004 0.64218312014920731 1.5000000000000002 15004.000000000002 2.5000000000000004 36276.000000000007 0.61577924544843521 21.500000000000004 6.5000000000000009 1.5000000000000002 5.5000000000000009 12.500000000000002 6.5000000000000009 0.58717983236561166 3.5000000000000004 6.5000000000000009
decision_type=2 2 2 2 2 2 2 2 2 2 2 2 2 2 2 2 2 2 2 2 2 2 2 2 2 2 2 2 2 2
left_child=1 4 3 9 10 8 15 17 14 -2 -1 26 28 27 25 23 -12 21 -10 22 -8 -4 -11 -6 -15 -3 -5 -7 -9 -13
right_child=2 5 7 11 6 13 20 12 18 19 16 29 -14 24 -16 -17 -18 -19 -20 -21 -22 -23 -24 -25 -26 -27 -28 -29 -30 -31
leaf_value=0.047788982182897885 0.028381653294868681 0.23712849911373982 0.0080340467393147357 0.15718940659514963 0.21568607552749686 0.1627061876039464 0.13266096506410807 0.068506992916010825 0.27091669298256171 0.098179424973146967 0.16415990039652473 0.21774055128732195 0.019084113738676148 0.22764814105742245 0.27055032820366248 0.24565396585335902 0.10498936809001971 0.039106994524034752 0.29924411801046397 0.13241872766496512 0.17671389241022514 -0.02431198994807755 0.06068503094072078 0.17739014727874067 0.2638207872812155 0.18569722922286108 0.11781906578486145 0.21063533769640524 0.11572370738409424 0.17429436138336096
leaf_weight=16237.514376342297 30029.438601963222 23251.070310421288 49452.397258043289 23770.479763910174 34906.124978326261 14971.071904733777 28741.714849300683 21971.454920969903 54486.536936610937 28413.790675416589 16534.03859796375 18248.10448500514 27221.55716470629 33831.27762286365 65435.083947435021 42700.077654413879 31970.090785227716 21867.651245370507 208132.24600853771 14314.831765912473 28874.719975881279 39317.028297901154 32175.102533340454 23734.972136728466 27093.175163283944 10211.013039916754 24416.922893799841 16191.675494737923 12172.836247205734 15866.491865478456
leaf_count=132603 279332 76346 499137 138517 147872 78241 191155 183605 148561 219700 88888 77274 265933 130888 157844 160337 231451 205942 379565 95582 161256 427824 280424 132263 74709 45751 171453 70153 86141 87307
internal_value=0.178879 0.237476 0.0684005 0.111315 0.16983 0.270837 0.195927 0.0216856 0.282579 0.0713791 0.105754 0.162232 0.0559494 0.224741 0.253932 0.219344 0.125159 0.00268089 0.293367 0.0886171 0.154738 -0.0062924 0.0782684 0.200186 0.243734 0.221434 0.13724 0.187609 0.0853403 0.197534
internal_weight=1.03654e+06 677302 359238 187235 223699 453603 158958 172003 361516 104933 64741.6 82302 61365.8 92087.2 98897.2 101341 48504.1 110637 262619 74903.7 57616.4 88769.4 60588.9 58641.1 60924.5 33462.1 48187.4 31162.7 34144.3 34114.6
internal_count=5426054 2407883 3018171 1349589 1245825 1162058 792883 1668582 808067 875038 452942 474551 535679 353991 279941 440472 320339 1132903 528126 595706 352411 926961 500124 280135 205597 122097 309970 148394 269746 164581
is_linear=0
shrinkage=0.05


Tree=2
num_leaves=31
num_cat=0
split_feature=13 10 13 10 9 13 13 10 10 9 10 9 9 13 9 9 13 9 7 0 0 10 10 0 0 9 13 0 13 6
split_gain=1.69878e+06 346925 223395 114412 95804.4 53833.7 44019.2 29911.3 26757.2 25634.2 20512.9 16104.8 15984.2 15713 13308.4 12260.9 11139.7 10753.3 10656.1 9803.81 9652.46 8304.18 7830.44 8457.31 7078.72 6927.42 5678.36 5411.92 5329.11 4901.7
threshold=4.5000000000000009 1.5000000000000002 11.500000000000002 1.5000000000000002 0.4211742863526583 1.5000000000000002 1.5000000000000002 2.5000000000000004 4.5000000000000009 0.51519811390886028 2.5000000000000004 0.59030776734064772 0.48154543313813752 23.500000000000004 0.64218312014920731 0.27651033233094308 22.500000000000004 0.62611363047132751 9697.0000000000018 8.5000000000000018 13.500000000000002 6.5000000000000009 4.5000000000000009 14.500000000000002 5.5000000000000009 0.27191417902663917 1.5000000000000002 7.5000000000000009 7.5000000000000009 39506.500000000007
decision_type=2 2 2 2 2 2 2 2 2 2 2 2 2 2 2 2 2 2 2 2 2 2 2 2 2 2 2 2 2 2
left_child=1 4 3 9 15 14 17 13 12 25 -5 27 -7 18 22 -1 -9 -6 -4 -11 -14 28 23 -3 -13 -2 -17 -8 -12 -21
right_child=2 5 7 10 6 8 11 16 -10 19 21 24 20 -15 -16 26 -18 -19 -20 29 -22 -23 -24 -25 -26 -27 -28 -29 -30 -31
leaf_value=0.042075168313718415 0.0011499398097277607 0.21433799426600381 0.010426290598940791 0.10554379682816523 0.16856044020479349 0.14432059146341977 0.13208379504050946 0.083327137565626389 0.21480866657304692 0.11303070495921828 0.15337085471905518 0.17213013573503444 0.19934527603418831 -0.015452414589665254 0.23543601180305884 0.12521416203477936 0.020588145244249345 0.20522464806189281 0.055997163058626488 0.061741675744912267 0.16923570958931056 0.18067361961074527 0.22898899849983181 0.17815824313390832 0.13987554467577215 0.044837868359738124 0.080516672291689212 0.10098643204819531 0.11654691829015824 0.099694356591952582
leaf_weight=16010.358339942992 11646.852326974273 62706.397305548191 59998.893635943532 39013.608172811568 43959.977988548577 25161.603050120175 31155.921969555318 19598.747025467455 94881.788770616055 18232.323339231312 27153.717094987631 30452.561304807663 72732.967391394079 52085.825159564614 170197.40985693038 10791.959904417396 11072.28734587878 36689.417468227446 16316.707053303719 38485.794918805361 41981.164935871959 17856.566821843386 57103.683155268431 21756.903047278523 38535.620647132397 41071.981026984751 20801.334143199027 25394.465047933161 15395.671627238393 10921.817564889789
leaf_count=126511 111841 126222 589354 237318 167866 103209 174085 142179 194696 118739 123225 129259 203242 559089 237965 54535 106452 103669 138985 308864 150459 67154 84416 61849 188664 353250 144204 157032 91263 70458
internal_value=0.148673 0.189964 0.0614465 0.094111 0.141655 0.212397 0.156416 0.0163163 0.194313 0.0613234 0.133804 0.137899 0.18041 0.00571959 0.226014 0.0777209 0.0606783 0.18524 0.0201696 0.0816948 0.188326 0.152056 0.214687 0.205018 0.154113 0.0351862 0.0957849 0.118119 0.140047 0.0701313
internal_weight=1.17916e+06 800314 378851 219778 253792 546522 206188 159072 234758 120359 99419.6 125539 139876 128401 311764 47603.7 30671 80649.4 76315.6 67639.9 114714 60406 141567 84463.3 68988.2 52718.8 31593.3 56550.4 42549.4 49407.6
internal_count=5426054 2407883 3018171 1482112 1245825 1162058 920575 1536059 651606 963152 518960 649040 456910 1287428 510452 325250 248631 271535 728339 498061 353701 281642 272487 188071 317923 465091 198739 331117 214488 379322
is_linear=0
shrinkage=0.05


Tree=3
num_leaves=31
num_cat=0
split_feature=13 10 13 9 10 13 13 10 10 7 10 10 9 9 9 13 9 8 9 13 0 10 10 0 0 0 0 0 9 10
split_gain=1.19873e+06 274335 123529 76092.4 70236.5 58204.5 44969.7 18577.6 18264.6 17676.5 15079.5 11708 11641 10244.1 10031.2 9240 9008.39 8334.89 7671.23 6040.9 5361.59 10648.4 5117.8 4956.78 4945.11 4907.17 4834.34 4790.4 4680.1 4261.03
threshold=5.5000000000000009 1.5000000000000002 13.500000000000002 0.41651273975924535 1.5000000000000002 2.5000000000000004 2.5000000000000004 1.5000000000000002 2.5000000000000004 2467.5000000000005 2.5000000000000004 2.5000000000000004 0.57700020799170071 0.2461339178955759 0.65160734617925098 25.500000000000004 0.47851081203501195 7030.0000000000009 0.69713348665334995 2.5000000000000004 19.500000000000004 9.5000000000000018 8.5000000000000018 33.500000000000007 4.5000000000000009 6.5000000000000009 11.500000000000002 11.500000000000002 0.2658299444412624 6.5000000000000009
decision_type=2 2 2 2 2 2 2 2 2 2 2 2 2 2 2 2 2 2 2 2 2 2 2 2 2 2 2 2 2 2
left_child=1 3 4 13 9 8 12 17 16 28 26 -6 -5 -1 25 -9 -3 -4 20 -15 -10 -22 23 -12 -18 -8 -7 -11 -2 -13
right_child=2 5 7 6 11 10 14 15 18 27 22 29 -14 19 -16 -17 24 -19 -20 -21 21 -23 -24 -25 -26 -27 -28 -29 -30 -31
leaf_value=0.027905797262050471 -0.0044680649712438699 0.13479939616603298 -0.012530442233960297 0.12863389945483392 0.081762480495362194 0.13977674576501206 0.10795166561822496 0.05059860056170809 0.18866260662689815 0.085780129227888205 0.15879147416944275 0.10984062980754195 0.15735635534546499 0.09545482800429797 0.12644812065644115 0.0053000947477234326 0.18800902003056441 0.027305369156856357 0.19724174425884139 0.056974525761256833 0.1586255816715624 0.19204641530869748 0.17830370932705347 0.12782559152806866 0.16409438971516041 0.081748317433293999 0.10907797922737927 0.054231725970124468 0.032469622464765327 0.14105263418347017
leaf_weight=14429.073101088405 10357.887934178114 19840.689423248172 69462.009130857885 56869.697514407337 35680.287647202611 27307.437232032418 32179.902453668416 30345.268375575542 143699.59734618664 19233.499845050275 60720.487921088934 38513.020475231111 92907.689716115594 21168.001500748098 33644.446987874806 17897.049885824323 31677.22174552083 16191.647779606283 140651.74061971903 19682.676886327565 53805.858115062118 42785.708745703101 24820.094714671373 16417.427775397897 68063.441642045975 40171.879335165024 24179.966791138053 32138.497065030038 49831.718351095915 15270.461872525513
leaf_count=115152 102014 61038 743547 233657 220566 95535 170235 238684 207079 126346 168890 195725 281836 115557 152198 177771 53100 150373 163945 141184 112791 53594 47930 54874 156520 244265 105550 247185 430217 58696
internal_value=0.127686 0.155972 0.0461842 0.117317 0.0709665 0.174357 0.128814 0.00897722 0.182616 0.0445002 0.147417 0.10397 0.146451 0.0641221 0.103892 0.0337937 0.165569 -0.00500003 0.187968 0.0769142 0.182539 0.17343 0.158555 0.152201 0.17169 0.0934028 0.12536 0.0660433 0.0261131 0.118702
internal_weight=1.29994e+06 965023 334921 311053 201025 653970 255774 133896 500524 111562 153445 89463.8 149777 55279.8 105996 48242.3 119581 85653.7 380943 40850.7 240291 96591.6 101958 77137.9 99740.7 72351.8 51487.4 51372 60189.6 53783.5
internal_count=5426054 2734930 2691124 1454084 1380749 1280846 1082191 1310375 808067 905762 472779 474987 515493 371893 566698 416455 270658 893920 537409 256741 373464 166385 271694 223764 209620 414500 201085 373531 532231 254421
is_linear=0
shrinkage=0.05


Tree=4
num_leaves=31
num_cat=0
split_feature=13 11 13 9 11 13 13 8 11 7 0 9 11 13 11 13 11 0 9 9 9 11 9 9 11 13 7 0 13 13
split_gain=894695 203294 101422 57118.1 54306 43476.6 27579.1 16436.7 14577 14408.4 14348 13894.5 11779.7 10035.6 8632.9 8074.35 7113.83 6514.34 6328.62 6324.68 5710.94 4772.52 4719.42 4160.81 4068.01 4034.77 4011.38 3990.31 3877.97 3690.77
threshold=5.5000000000000009 1.0000000180025095e-35 13.500000000000002 0.47851081203501195 1.0000000180025095e-35 2.5000000000000004 2.5000000000000004 7030.0000000000009 4.5000000000000009 3906.0000000000005 10.500000000000002 0.28464418895007526 2.5000000000000004 23.500000000000004 1.5000000000000002 2.5000000000000004 1.0000000180025095e-35 8.5000000000000018 0.47666651373332791 0.69174612227957277 0.58717983236561166 1.5000000000000002 0.17868968779564801 0.6951190571071223 1.5000000000000002 7.5000000000000009 14534.000000000002 10.500000000000002 1.5000000000000002 1.5000000000000002
decision_type=2 2 2 2 2 2 2 2 2 2 2 2 2 2 2 2 2 2 2 2 2 2 2 2 2 2 2 2 2 2
left_child=1 3 4 11 9 8 19 13 10 22 21 29 20 16 26 -13 -4 23 -12 28 -7 -3 -2 -8 -9 -16 -6 -24 -5 -1
right_child=2 5 7 6 14 12 17 24 -10 -11 18 15 -14 -15 25 -17 -18 -19 -20 -21 -22 -23 27 -25 -26 -27 -28 -29 -30 -31
leaf_value=0.067728716471909076 -0.019976570120646756 0.14972978989891444 2.2284122812161237e-05 0.13068834345115193 0.064155135764856264 0.10082749709977001 0.098293324184012543 0.03003815066575868 0.16690648696828786 0.063302816856071933 0.11172376457343734 0.095371761815645939 0.14116780352428196 -0.017355854494802578 0.11830000044580363 0.061236536349119554 0.037166614275960373 0.07932328145229095 0.14201340878739363 0.14714135217679311 0.12670183056368708 0.16504411296791763 0.050588670385869033 0.12980671414442696 0.071801635298005526 0.091865228143775346 0.10271912471410512 0.022992693737443393 0.11144241384699732 0.020336029530508504
leaf_weight=5623.7148907333612 4986.1898276209831 89584.362621307373 35094.787268772721 66788.939163848758 29073.16222845763 39842.922914847732 46016.205810815096 22254.24682597816 214072.73270371556 44057.479485921562 20423.085039585829 37535.843576282263 82199.782803431153 49194.714888699353 26248.45576877892 32171.908130533993 20373.112216852605 39710.642649762332 110816.28859530389 36617.46220806241 45887.21778164804 117731.60219921172 17960.921307273209 13561.222881533206 7900.9177207872272 32071.883884511888 8779.6102974265814 48397.251350410283 43041.094465613365 15242.36911906302
leaf_count=35421 50697 162958 360771 187489 174401 150558 217871 198029 234073 295583 57382 171649 180505 536890 97515 205433 156782 211377 212820 87219 141716 140834 138637 49684 57903 156906 46165 420845 165764 122177
internal_value=0.112086 0.134942 0.0423485 0.102844 0.0639455 0.149924 0.115354 0.00845542 0.156694 0.0408205 0.150237 0.068903 0.127644 -0.000915653 0.0916941 0.0796175 0.0136652 0.0950104 0.1373 0.129146 0.114677 0.158427 0.0269369 0.105467 0.0409806 0.103763 0.0730997 0.030462 0.123146 0.0331091
internal_weight=1.40326e+06 1.05687e+06 346393 336309 211575 720558 245736 134818 552628 115402 338555 90573.8 167930 104663 96173.1 69707.8 55467.9 99288.1 131239 146447 85730.1 207316 71344.4 59577.4 30155.2 58320.3 37852.8 66358.2 109830 20866.1
internal_count=5426054 2734930 2691124 1454084 1380749 1280846 919404 1310375 808067 905762 573994 534680 472779 1054443 474987 377082 517553 478932 270202 440472 292274 303792 610179 267555 255932 254421 220566 559482 353253 157598
is_linear=0
shrinkage=0.05


Tree=5
num_leaves=31
num_cat=0
split_feature=13 10 13 9 10 13 13 6 7 9 10 10 13 10 10 9 9 0 6 0 7 9 13 13 13 0 10 10 0 13
split_gain=700629 159093 83931.5 44805.2 44177 35405.1 24342.2 13112.7 13080.5 11790.7 9049.41 7986.18 7919.93 7610.38 7273.47 6468.06 5954.13 5930.94 4916.5 4865.87 4190.21 4003.37 3732.51 3452.23 3449.2 3429.75 3929.7 3406.59 4323.46 3194.31
threshold=5.5000000000000009 1.5000000000000002 14.500000000000002 0.43976901414101904 1.5000000000000002 2.5000000000000004 2.5000000000000004 19795.500000000004 2619.0000000000005 0.61700047199446584 3.5000000000000004 3.5000000000000004 1.5000000000000002 1.5000000000000002 2.5000000000000004 0.20373850426568657 0.61700047199446584 5.5000000000000009 26563.500000000004 16.500000000000004 32758.000000000004 0.17868968779564801 30.500000000000004 7.5000000000000009 8.5000000000000018 26.500000000000004 10.500000000000002 6.5000000000000009 11.500000000000002 23.500000000000004
decision_type=2 2 2 2 2 2 2 2 2 2 2 2 2 2 2 2 2 2 2 2 2 2 2 2 2 2 2 2 2 2
left_child=1 3 4 12 8 9 16 13 21 14 19 18 -1 29 -3 -14 -5 -8 23 -7 -10 -2 -15 -6 -23 -16 -27 28 -11 -4
right_child=2 5 7 6 11 10 17 -9 20 27 -12 -13 15 22 25 -17 -18 -19 -20 -21 -22 24 -24 -25 -26 26 -28 -29 -30 -31
leaf_value=0.081582688445924201 -0.020029984345041683 0.11577615625171518 -0.00080649316199497541 0.1033020922556732 0.077590125389391029 0.10988795859446697 0.097535959857149246 0.038036565893614427 0.04640341124378726 0.14464716949777831 0.12401349483964155 0.096466470486576861 0.0022934914631945066 0.027291218178493611 0.13942531165638422 0.05289574876000637 0.12194109689750883 0.074210293702850982 0.094286308446318856 0.085633971374684481 0.077811494292764447 0.03688396315860084 -0.0094672895382284499 0.050159167857056645 0.013418715425710076 0.11088283204428653 0.14189444309668356 0.14957538700727691 0.12998797928035463 -0.022978840318396788
leaf_weight=21650.352131813765 5308.0882209837437 71423.003104388714 30845.640343904495 86460.671268090606 18990.847665786743 60606.436592489481 43482.154348857701 24990.686134979129 43839.293874785304 147385.05844403803 88410.616515651345 44417.946527153254 7419.0048468858004 24104.874801464379 116590.44362637401 42438.129929259419 84937.951520979404 73009.39981187135 14457.826439887285 31389.458741903305 14013.797468401492 31437.406303443015 9678.9827524647117 28961.810289248824 31205.763405710459 26343.517056494951 16685.423129022121 140628.9738202095 76356.150633305311 34315.218966424465
leaf_count=97540 54945 157090 317759 285483 90770 178535 176422 206784 310010 173578 180103 170071 61678 194351 153767 265999 205104 362029 69090 113904 77840 244936 100887 176449 282197 52280 18702 130650 121062 393614
internal_value=0.100051 0.119255 0.0389106 0.0917541 0.0566167 0.131995 0.100553 0.00567535 0.0365384 0.137874 0.11259 0.0802616 0.0563312 -0.00249819 0.129038 0.0453659 0.112539 0.0829169 0.0687285 0.101612 0.0540114 0.0216619 0.01676 0.0610227 0.0251947 0.134973 0.122908 0.143477 0.139644 -0.012483
internal_weight=1.49178e+06 1.13522e+06 356568 359398 232633 775819 287890 123935 125804 595413 180407 106828 71507.5 98944.7 231042 49857.1 171399 116492 62410.5 91995.9 57853.1 67951.3 33783.9 47952.7 62643.2 159619 43028.9 364370 223741 65160.9
internal_count=5423629 2733926 2689703 1454255 1476308 1279671 1029038 1213395 969928 807129 472542 506380 425217 1006611 381839 327677 490587 538451 336309 292439 387850 582078 295238 267219 527133 224749 70982 425290 294640 711373
is_linear=0
shrinkage=0.05


Tree=6
num_leaves=31
num_cat=0
split_feature=10 0 10 0 9 9 0 0 10 0 0 9 0 0 4 9 9 0 4 0 10 0 9 4 4 4 9 0 9 10
split_gain=346700 148586 53754.4 83363.7 30528.5 25294.8 17594.5 16965.1 28182.9 15941.8 11994.4 9947.38 9366.14 7352.4 6677.22 5771.32 5753.67 5510.09 4894.43 4522.57 4143.97 6887.53 3771.54 3660.83 3616.4 3540.57 3435.57 3418.37 3342.98 3110.7
threshold=1.5000000000000002 12.500000000000002 3.5000000000000004 18.500000000000004 0.5170397613408636 0.47525633773842219 29.500000000000004 24.500000000000004 10.500000000000002 6.5000000000000009 38.500000000000007 0.33182331212805255 4.5000000000000009 51.500000000000007 0.37517507002801126 0.51519811390886028 0.55224148557035302 42.500000000000007 0.49480067762399077 6.5000000000000009 6.5000000000000009 11.500000000000002 0.17868968779564801 0.18624070317782282 0.22811275762221081 0.39736545302061949 0.75105547080366941 59.500000000000007 0.56387427417398917 16.500000000000004
decision_type=2 2 2 2 2 2 2 2 2 2 2 2 2 2 2 2 2 2 2 2 2 2 2 2 2 2 2 2 2 2
left_child=1 4 3 9 11 17 18 20 13 -2 16 -1 24 -9 26 -11 -5 22 -7 23 21 -4 -3 -13 -6 -21 -14 -8 -12 -10
right_child=2 5 7 10 12 6 27 8 29 15 28 19 14 -15 -16 -17 -18 -19 -20 25 -22 -23 -24 -25 -26 -27 -28 -29 -30 -31
leaf_value=0.035278408265674494 0.12280661895080779 -0.01574645510486462 0.1317034944629614 0.058785663091306888 0.098114250278824811 0.042631426825306781 0.027767303065497628 0.10058492353711197 0.11827028046566693 0.084489010277362081 0.030022945897309479 0.062230901031869346 0.072527681646257391 0.073243356916685154 0.097878906133184423 0.10532133543401895 0.084801657713215989 -0.013237392053066278 0.064395886587713766 0.043730759611797898 0.13502907381295631 0.11199367720179346 0.020693182887033902 0.091475308843318448 0.12052150585002104 0.074375077044836799 0.10427081703768293 -0.00013016771348290342 0.056073024335619871 0.13530237476122059
leaf_weight=28750.007988169789 137509.69855773449 8070.8113490790129 97321.893424317241 35339.890430547297 45513.977097466588 45636.173010371625 46793.593355856836 95352.938599050045 46706.312913239002 44261.57492826134 23488.224500693381 17486.731321819127 74762.988620191813 33131.2695658952 60820.973608128726 133585.97457122058 53312.627105332911 20616.796684831381 59522.944868907332 22105.16884251684 110951.03439279646 81393.413383938372 59085.311010196805 27577.802244879305 29794.743045449257 16432.609437674284 9620.8046899288893 14347.480953559279 25891.083541482687 62924.481304727495
leaf_count=199683 198784 80213 101567 164858 130291 279547 358942 232267 73902 139692 151327 79075 306698 124670 227921 323730 200622 210395 338936 129826 106502 148949 476276 113415 73645 87991 28693 131781 139129 64302
internal_value=0.0902805 0.0598833 0.108464 0.0958374 0.0818622 0.0310883 0.0425498 0.119311 0.109424 0.110022 0.0634307 0.0606486 0.0926706 0.0935346 0.0852496 0.100137 0.0744308 0.00937264 0.0549507 0.0693731 0.127439 0.122727 0.0163139 0.0801274 0.106979 0.0567976 0.0761468 0.0212208 0.0436818 0.128046
internal_weight=1.56811e+06 586939 981170 453389 332866 254073 166300 527781 238115 315357 138032 112352 220513 128484 145205 177848 88652.5 87772.9 105159 83602.3 289666 178715 67156.1 45064.5 75308.7 38537.8 84383.8 61141.1 49379.3 109631
internal_count=5423629 3253328 2170301 1318142 1377238 1876090 1109206 852159 495141 662206 655936 609990 767248 356937 563312 463422 365480 766884 618483 410307 357018 250516 556489 192490 203936 217817 335391 490723 290456 138204
is_linear=0
shrinkage=0.05


Tree=7
num_leaves=31
num_cat=0
split_feature=13 10 13 9 10 13 13 13 9 10 9 7 10 13 7 9 8 9 9 6 10 13 13 13 9 9 9 10 8 5
split_gain=509533 92390.8 85776 36264.1 32865.6 26964.1 15452.5 10920.3 10624.3 10196.3 8741.16 6267.02 6073.06 5244.52 4891.37 4836.97 4222.06 4079.83 3772.5 3768.36 3583.26 2938.27 2819.64 2638.43 2285.65 2273.24 2158.27 2153.65 2097.28 1870.25
threshold=4.5000000000000009 2.5000000000000004 11.500000000000002 0.39466789707036637 1.5000000000000002 1.5000000000000002 23.500000000000004 1.5000000000000002 0.43521073013539874 2.5000000000000004 0.65160734617925098 2896.5000000000005 5.5000000000000009 1.5000000000000002 16164.500000000002 0.69713348665334995 7786.0000000000009 0.65160734617925098 0.17868968779564801 29899.000000000004 1.5000000000000002 7.5000000000000009 7.5000000000000009 3.5000000000000004 0.17868968779564801 0.76478020572059113 0.69713348665334995 1.5000000000000002 23374.500000000004 18.010000000000002
decision_type=2 2 2 2 2 2 2 2 2 2 2 2 2 2 2 2 2 2 2 2 2 2 2 2 2 2 2 2 2 2
left_child=1 3 4 13 8 15 9 26 24 11 20 -4 19 -1 22 27 -8 -9 -15 21 23 -6 -10 -7 -2 -12 -3 29 -13 -5
right_child=2 7 6 5 12 10 16 17 14 -11 25 28 -14 18 -16 -17 -18 -19 -20 -21 -22 -23 -24 -25 -26 -27 -28 -29 -30 -31
leaf_value=0.068806343523753963 -0.016242017741040046 0.11553135896994844 0.00054720392738674228 0.090605046458764896 0.0677263926151217 0.072314815188140549 -0.016671616961583195 0.098742706358764754 0.046882511834803756 0.048116322078427642 0.087510959381240427 0.022997344075197889 0.089906397741927893 0.001751438453556294 0.063779441509796808 0.1165141958159967 0.015619278275480892 0.11171556940711967 0.045344491900801927 0.082746347057515365 0.083062539877683597 0.048091221415726554 0.0279248455266786 0.055316938205413162 0.019555087115472127 0.10599586361668077 0.12342938199750363 0.10547503489852605 0.056304675164031759 0.10800841784001125
leaf_weight=23626.35743676126 5184.2114599719644 224190.83732278645 47743.552732490003 79026.776427984238 51598.674380466342 94821.988387852907 50042.306770861149 127699.72144767642 49729.337274961174 26295.21797221154 77845.434907704592 30438.598599992692 34041.0587118119 5760.2090472131968 27468.42359098047 49858.669239938259 12689.878349326551 115348.89687915146 35854.190121307969 24739.503971815109 60323.42770755291 30206.878110021353 32388.160700209439 30068.863782897592 31884.185410760343 21151.359893471003 140836.76970365644 70153.939165055752 5594.9862037599087 19185.05327527225
leaf_count=90469 52169 239089 448294 200164 191870 361878 547178 228319 291701 149153 210153 242875 89381 43445 132747 71572 110603 160145 190788 87602 153463 149543 234381 143096 252304 46467 114696 110740 36927 42417
internal_value=0.082113 0.0995686 0.0375013 0.0850624 0.0542472 0.0896162 0.00966587 0.113111 0.0376879 0.0209534 0.0794665 0.0124277 0.0715212 0.0499921 0.0455149 0.102835 -0.0101396 0.1049 0.0393104 0.0656472 0.0730558 0.0604761 0.0394054 0.0682224 0.0145487 0.0914604 0.118579 0.0987841 0.028169 0.0940047
internal_weight=1.6358e+06 1.17575e+06 460045 567676 287240 502436 172805 608076 146654 110072 284211 83777.1 140586 65240.8 109586 218224 62732.2 243049 41614.4 106545 185214 81805.6 82117.5 124891 37068.4 98996.8 365028 168366 36033.6 98211.8
internal_count=5423629 2406901 3016728 1664652 1481698 1339950 1535030 742249 963302 877249 915057 728096 518396 324702 658829 424893 657781 388464 234233 429015 658437 341413 526082 504974 304473 256620 353785 353321 279802 242581
is_linear=0
shrinkage=0.05


Tree=8
num_leaves=31
num_cat=0
split_feature=13 10 13 10 9 13 13 10 9 13 10 9 9 13 7 9 8 7 8 0 10 13 10 0 0 9 10 10 10 9
split_gain=428930 83831.3 73327.4 22808.2 22225.5 20462.9 19171.8 12333.6 10345.1 9279.72 8950.99 8435.44 5762.94 5259.53 5052.64 4705.51 4689.77 4211.97 3591.13 3388.83 2490.64 2472.04 2415.62 2812.52 2406.49 2263.67 2116.43 2028.01 2018.84 2000.45
threshold=4.5000000000000009 1.5000000000000002 9.5000000000000018 2.5000000000000004 0.54397750303041248 1.5000000000000002 21.500000000000004 1.5000000000000002 0.43785548578502193 1.5000000000000002 5.5000000000000009 0.33462472186680375 0.65160734617925098 1.5000000000000002 2896.5000000000005 0.51363436475573698 7786.0000000000009 23985.000000000004 6825.0000000000009 23.500000000000004 2.5000000000000004 1.5000000000000002 5.5000000000000009 8.5000000000000018 3.5000000000000004 0.1667092924126172 1.5000000000000002 7.5000000000000009 1.5000000000000002 0.37276268331015461
decision_type=2 2 2 2 2 2 2 2 2 2 2 2 2 2 2 2 2 2 2 2 2 2 2 2 2 2 2 2 2 2
left_child=1 4 3 8 11 15 7 14 25 -6 12 21 19 -13 -4 -3 28 26 -9 20 -7 -1 23 -17 -11 -2 -10 -5 -8 -21
right_child=2 5 6 27 9 10 16 18 17 24 -12 13 -14 -15 -16 22 -18 -19 -20 29 -22 -23 -24 -25 -26 -27 -28 -29 -30 -31
leaf_value=0.052677397121712724 -0.014294139228291947 0.094009029614474382 0.00074813100189839374 0.070904088568422327 0.093257129071648806 0.076117930539445711 -0.020640212444106576 0.032493652554349432 0.040729969022210419 0.08719950039521128 0.10194465963598309 0.076150016560689635 0.094958035297823096 0.054091963368482626 0.025680469835715477 0.10976615267630488 0.017399299952133039 0.067085247126089459 0.05799015125989733 0.030537498372871175 0.090598031243471086 0.023239888639615756 0.11274395920192218 0.098796876765942121 0.069542910392004734 0.02471568226419139 0.056556515292935032 0.089501294238189075 -0.00072167524096639405 0.069373855167841003
leaf_weight=10812.255025550723 4153.7533532604575 66253.655496999621 47944.821264848113 59505.982788667083 92178.749366477132 61455.537878006697 38019.752859950066 44038.740864515305 75528.673205688596 23393.713529899716 119219.32845647633 43228.678515538573 94180.331850916147 72092.348917767406 35267.970307648182 136156.6392673105 15046.982507996261 27677.337604388595 20120.17851960659 3748.4313426762819 57464.901403620839 20950.607934489846 178930.78889921308 102372.28562834859 110222.71926102042 35516.222265534103 29325.588501363993 19451.20722399652 19117.909674204886 28730.682551637292
leaf_count=51020 39351 98417 452456 187561 183119 149590 441203 256120 446971 61357 148986 125111 161940 319871 263425 132164 126727 112264 99239 13563 102373 139603 143775 135541 365768 247152 121588 43321 179350 74703
internal_value=0.0753333 0.0909612 0.0347827 0.0532338 0.0712011 0.0996449 0.0136757 0.0240163 0.043031 0.0810533 0.0907037 0.0560764 0.0852467 0.0623605 0.0113152 0.106388 -0.00743546 0.0497359 0.0404893 0.0792057 0.083115 0.0332606 0.108353 0.105058 0.0726342 0.0206311 0.0451563 0.0754855 -0.0139756 0.0648917
internal_weight=1.69211e+06 1.22139e+06 470715 251159 372879 848513 219556 147372 172202 225795 364799 147084 245580 115321 83212.8 483713 72184.6 132532 64158.9 151400 118920 31762.9 417460 238529 133616 39670 104854 78957.2 57137.7 32479.1
internal_count=5423629 2406901 3016728 1198208 1245849 1161052 1818520 1071240 967326 610244 651155 635605 502169 444982 715881 509897 747280 680823 355359 340229 251963 190623 411480 267705 427125 286503 568559 230882 620553 88266
is_linear=0
shrinkage=0.05


Tree=9
num_leaves=31
num_cat=0
split_feature=13 13 10 10 9 13 9 10 13 9 7 13 7 6 13 13 9 10 9 13 9 8 9 9 10 9 8 4 0 0
split_gain=371551 87109.7 60058.7 28022.9 21903.8 17047.5 13204 9899.72 8705.5 7601.37 5917.31 5812.34 5409.53 4947.57 3647.65 2921.95 2911.79 2897.21 2511.52 2484.13 2413.2 2235.36 2167.97 1924.59 1924.22 1873.18 1853.74 1823.38 2236.36 1800.33
threshold=3.5000000000000004 9.5000000000000018 2.5000000000000004 2.5000000000000004 0.53231363108085683 19.500000000000004 0.39466789707036637 2.5000000000000004 1.5000000000000002 0.31378668207795551 15560.000000000002 1.5000000000000002 2896.5000000000005 18207.000000000004 1.5000000000000002 6.5000000000000009 0.73827352228816545 7.5000000000000009 0.56867093942770253 33.500000000000007 0.73525839917123914 161.50000000000003 0.15461234713091801 0.71424512987013 1.5000000000000002 0.17868968779564801 23910.500000000004 0.19157801418439713 9.5000000000000018 58.500000000000007
decision_type=2 2 2 2 2 2 2 2 2 2 2 2 2 2 2 2 2 2 2 2 2 2 2 2 2 2 2 2 2 2
left_child=2 3 4 6 9 7 22 12 20 21 15 23 -3 19 -11 27 -10 -5 -13 24 -6 -1 -2 29 -7 -23 -14 -8 -29 -4
right_child=1 5 11 17 8 13 10 -9 16 14 -12 18 26 -15 -16 -17 -18 -19 -20 -21 -22 25 -24 -25 -26 -27 -28 28 -30 -31
leaf_value=0.053828912226375272 -0.014542252275419798 0.0053469291758039862 0.099247510207602585 0.067144011761066089 0.086193161025172049 -0.011779249259579034 0.02871483572182993 0.046363542535008136 0.070604283576754676 0.072650658595359366 0.061969470891133707 0.081587299659764967 0.024142839915887032 0.017909354232380058 0.056837574884488623 0.032855625988177171 0.088383231940163051 0.084465328948785723 0.093810677974118614 -0.02335730427261104 0.10115615817076198 -0.0067881133587449618 0.021251420936433986 0.10585942957057709 0.011172397471919849 0.033300473110595107 0.051677505633665889 0.058068816074632934 0.042870619658117448 0.07895200219989186
leaf_weight=10725.574856869876 4771.663930349052 56054.228453800082 248412.56213991344 92737.227014094591 148147.36772862077 25151.095841504633 11549.683008477092 35690.46234010905 150193.30888624489 68167.777567714453 55006.822184890509 57003.634416416287 38524.282339558005 18550.029014788568 78424.387638956308 49454.234540998936 27200.392711490393 32637.149267807603 159915.05436636508 25962.770604595542 32936.900780528784 3693.4152743816376 37293.677062675357 127278.71338802576 14337.972640827298 13806.758177042007 7265.4587959200144 44073.453837960958 53690.927020326257 11429.513748660684
leaf_count=52445 43817 488268 241971 255696 254983 281029 55171 167317 396901 168536 204932 96638 269787 151060 287867 298142 53166 61846 205166 300501 41129 24810 248766 96401 119903 68206 40655 182315 250792 15413
internal_value=0.069535 0.0377977 0.0863547 0.0522879 0.0741265 0.0128635 0.042798 0.0237032 0.0812028 0.0596159 0.0478367 0.0971507 0.015762 -0.00488409 0.0641909 0.0429403 0.0733304 0.0716531 0.0905985 -0.0113441 0.0889147 0.0358554 0.0171912 0.100822 -0.0034458 0.0248398 0.0285118 0.0475026 0.0497222 0.0983548
internal_weight=1.74009e+06 602751 1.13734e+06 381215 533296 221536 255840 137534 358478 174818 213775 604039 101844 84001.9 146592 158768 177394 125374 216919 65451.8 181084 28225.7 42065.3 387121 39489.1 17500.2 45789.7 109314 97764.4 259842
internal_count=5423629 3419997 2003632 1601477 1348043 1818520 1283935 966027 746179 601864 991352 655589 798710 852493 456403 786420 450067 317542 301804 701433 296112 145461 292583 353785 400932 93016 310442 488278 433107 257384
is_linear=0
shrinkage=0.05


Tree=10
num_leaves=31
num_cat=0
split_feature=13 13 10 10 13 9 10 10 0 9 10 13 9 7 9 7 7 9 0 13 8 13 13 13 1 10 13 9 4 9
split_gain=322751 73431.5 57913 24839.6 15550.6 13374.8 11508.4 9478.26 9386.07 8208.48 5035.01 5003.19 4797.44 4482.01 4226.12 3986.38 3822.03 2916.73 2678.73 2601.81 2537.88 2464.75 2368.53 2058.7 1926.45 1817.64 1728.65 1723.37 1703.5 1682.16
threshold=3.5000000000000004 9.5000000000000018 1.5000000000000002 1.5000000000000002 21.500000000000004 0.53084861517365434 4.5000000000000009 1.5000000000000002 8.5000000000000018 0.39466789707036637 7.5000000000000009 1.5000000000000002 0.44792074523623077 1260.5000000000002 0.27651033233094308 3837.0000000000005 32758.000000000004 0.61269944008775534 7.5000000000000009 1.5000000000000002 15909.500000000002 1.5000000000000002 1.5000000000000002 1.5000000000000002 10.984375000000002 4.5000000000000009 33.500000000000007 0.2148133787141154 0.38375235700817101 0.75105547080366941
decision_type=2 2 2 2 2 2 2 2 2 2 2 2 2 2 2 2 2 2 2 2 2 2 2 2 2 2 2 2 2 2
left_child=2 3 5 9 7 14 8 13 21 27 17 -7 -10 -3 -1 -6 18 -5 24 -8 25 -4 -16 -14 -11 -9 -17 -2 -20 -13
right_child=1 4 6 10 15 11 19 20 12 16 -12 29 23 -15 22 26 -18 -19 28 -21 -22 -23 -24 -25 -26 -27 -28 -29 -30 -31
leaf_value=0.025427603763040568 -0.0078852359351576241 -0.0030952474122403449 0.092382613475061659 0.050902477085965771 -0.016348552330651391 0.07794244283758249 0.096543676422420122 0.025631215477731631 0.05436058651754555 0.069637047117645831 0.078116788923789621 0.060563935994623043 0.082045445524232818 0.020142443171644743 0.061340084036796416 0.018874869647265979 0.058008536510667875 0.064161507050573413 0.021616180023848092 0.087817946151036302 0.056789673000545542 0.081586408413083705 0.0462535883534506 0.071568348354626971 0.042014191118049583 0.046267182067443208 -0.0063238300801145807 0.019052547285633332 0.036472434125565653 0.078889919909259212
leaf_weight=16101.316392682493 7675.1464481428266 36262.630398005247 151582.23334528506 91436.729937911034 43770.326217502356 103631.53722025454 246546.63463552296 41476.570586845279 26871.826164022088 7749.4366236776114 33637.356404364109 101614.61194519699 96385.281097412109 48507.789346188307 46667.105347052217 15618.713694520295 25010.979009434581 75913.472580567002 28132.180039003491 130729.27311529219 11440.640735343099 81175.961218833923 58791.238930135965 91300.101091504097 34026.119438461959 14367.080974116921 12062.184446670115 26223.139969140291 61432.043871469796 14281.953365504742
leaf_count=98663 70547 345964 153278 301481 493923 193470 200162 242595 65373 30364 61679 296322 131116 369746 132424 134965 90400 210848 161748 153615 50330 127868 243344 177640 150345 62322 119446 183664 339775 30181
internal_value=0.0644609 0.0351462 0.0799206 0.0482076 0.0122829 0.0625923 0.0870883 0.0213236 0.0816635 0.0352583 0.060465 0.06996 0.0741198 0.0102019 0.0492868 -0.00695663 0.0400942 0.056917 0.0366828 0.0935201 0.0353356 0.0886174 0.0529296 0.0769488 0.0471383 0.0309403 0.00789432 0.0129534 0.0318061 0.0628223
internal_weight=1.78042e+06 614743 1.16568e+06 391237 223506 341088 824591 152055 447315 190249 200988 219528 214557 84770.4 121560 71451.2 156351 167350 131340 377276 67284.3 232758 105458 187685 41775.6 55843.7 27680.9 33898.3 89564.2 115897
internal_count=5423598 3420142 2003456 1600851 1819291 994404 1009052 1070957 655275 1026843 574008 519973 374129 715710 474431 748334 772632 512329 682232 353777 355247 281146 375768 308756 180709 304917 254411 254211 501523 326503
is_linear=0
shrinkage=0.05


Tree=11
num_leaves=31
num_cat=0
split_feature=13 13 10 10 9 13 9 10 13 13 7 9 7 9 6 13 9 13 9 10 0 10 9 6 6 4 0 0 10 0
split_gain=284465 63229.2 55461.2 22181.5 17837 13903.8 9275.42 8813.89 8042.58 5646.82 5583.01 4976.75 3635.39 3087.64 2967.05 2764.28 2663.95 2544.65 2423.46 2338.48 2811.32 2206.98 2001.22 1973.53 1664.19 1589.6 2215.19 1574.61 3252.75 1462.27
threshold=3.5000000000000004 9.5000000000000018 2.5000000000000004 2.5000000000000004 0.50253563420246627 23.500000000000004 0.43785548578502193 2.5000000000000004 1.5000000000000002 1.5000000000000002 1260.5000000000002 0.27651033233094308 32758.000000000004 0.68444010872128136 6241.0000000000009 6.5000000000000009 0.69713348665334995 1.5000000000000002 0.27651033233094308 11.500000000000002 35.500000000000007 7.5000000000000009 0.69713348665334995 36276.000000000007 582.50000000000011 0.16727493917274938 4.5000000000000009 15.500000000000002 8.5000000000000018 28.500000000000004
decision_type=2 2 2 2 2 2 2 2 2 2 2 2 2 2 2 2 2 2 2 2 2 2 2 2 2 2 2 2 2 2
left_child=2 3 4 6 11 7 18 10 16 22 -3 24 15 25 -7 -8 -6 -13 -2 20 -11 29 27 -12 -1 -10 -27 -4 -29 -5
right_child=1 5 9 21 8 14 12 -9 13 19 23 17 -14 -15 -16 -17 -18 -19 -20 -21 -22 -23 -24 -25 -26 26 -28 28 -30 -31
leaf_value=0.036971850303587461 0.0029156880259582994 -0.00069431421292174503 0.089154679564299302 0.062061950719305863 0.07178941213312813 -0.018139335817611357 0.042442322389344117 0.038704544820953625 0.044896607523876433 0.07862397197141624 0.016511141800834937 0.059494636677436444 0.05533504406563268 0.070509319085863817 0.0041845805288077296 0.028761046703670967 0.084505513386341241 0.045203964999397744 0.025328250485956438 0.089366319040597941 0.0616894706035723 0.072308613668190178 0.092691376877069839 0.035905761414417349 0.0082624050012779122 0.072174228859145359 0.055928767448843099 0.072981199395068697 0.089833446198097411 0.049222698403775682
leaf_weight=12641.515661820769 17164.324261322618 49255.00176230818 131570.18818080425 63809.520649284124 152076.50049243867 35514.711225025356 119508.62801835686 42654.108424834907 21957.022022753954 157446.46518953145 54964.969289466739 57738.632326617837 37787.082570940256 63596.87940132618 25622.54097007215 53425.736915156245 56484.430482640862 67645.720066249371 40568.420053564012 39600.705085098743 29026.022338777781 34498.727992132306 153833.93655918539 17227.718447685242 8402.923524454236 26916.385736763477 95206.834253668785 59152.213151797652 55498.263015061617 33988.593025952578
leaf_count=64682 133922 445450 116504 158454 261195 414572 488536 199982 64662 213116 415373 143737 125074 127794 244194 296376 71480 249407 240047 37169 51326 61679 114909 99720 47493 60030 257112 77107 45733 96763
internal_value=0.0600453 0.0327655 0.0744101 0.0446787 0.0630177 0.0115692 0.0364208 0.0191516 0.0682979 0.0846479 0.0122844 0.0480083 0.0412856 0.0613329 -0.00878341 0.0382157 0.0752333 0.0517847 0.0186648 0.0783314 0.075988 0.0614354 0.0882174 0.0211394 0.0255083 0.0572824 0.0595093 0.0854221 0.0811388 0.0575998
internal_weight=1.81478e+06 625990 1.18879e+06 400751 562667 225239 268454 164102 416238 626128 121448 146429 210721 207677 61137.3 172934 208561 125384 57732.7 226073 186472 132297 400055 72192.7 21044.4 144080 122123 246221 114650 97798.1
internal_count=5423598 3420142 2003456 1600851 1347592 1819291 1283955 1160525 842273 655864 960543 505319 909986 509598 658766 784912 332675 393144 373969 301611 264442 316896 354253 515093 112175 381804 317142 239344 122840 255217
is_linear=0
shrinkage=0.05


Tree=12
num_leaves=31
num_cat=0
split_feature=13 13 10 10 13 10 9 0 9 10 7 9 10 9 13 9 7 13 10 0 13 13 0 10 13 0 9 8 8 0
split_gain=253055 54738.4 53470.6 19520.1 12486.6 10834.2 10570.1 8681.29 6305.26 6018.38 4766.81 4385.67 4123.14 3916.27 3625.59 2870.08 2743.42 2566.27 2421.33 2160.75 2075.39 2044.28 2004.13 1915.57 1851.74 1696.66 1512.79 1484.98 1479.8 1445.22
threshold=3.5000000000000004 9.5000000000000018 1.5000000000000002 1.5000000000000002 17.500000000000004 4.5000000000000009 0.56044841302628645 6.5000000000000009 0.54944646431635291 1.5000000000000002 3837.0000000000005 0.50253563420246627 3.5000000000000004 0.36375202405736756 1.5000000000000002 0.27651033233094308 1260.5000000000002 1.5000000000000002 1.5000000000000002 17.500000000000004 1.5000000000000002 33.500000000000007 7.5000000000000009 2.5000000000000004 1.5000000000000002 8.5000000000000018 0.29626135569531803 6825.0000000000009 651.50000000000011 17.500000000000004
decision_type=2 2 2 2 2 2 2 2 2 2 2 2 2 2 2 2 2 2 2 2 2 2 2 2 2 2 2 2 2 2
left_child=2 3 6 8 9 7 13 23 15 16 18 26 19 28 -8 -2 -3 29 -6 -5 -13 -12 -10 -4 -15 -17 -9 -11 -1 -7
right_child=1 4 5 12 10 17 14 11 22 27 21 20 -14 24 -16 25 -18 -19 -20 -21 -22 -23 -24 -25 -26 -27 -28 -29 -30 -31
leaf_value=0.037246845121329149 0.00021655401219313237 -0.00044614142104227293 0.075021145792617663 0.051633989421869989 -0.018515418779984621 0.089870934520341228 0.067850906426270008 0.031211903749623279 0.048400876291374406 0.027611164623498548 0.018468375360067939 0.073510126280374455 0.059766329118380979 0.054894852765720328 0.054535741429040864 0.034033235199293542 0.019680521374370312 0.077032181098175223 0.0029215670597422935 0.037755475911566486 0.063868772641337085 -0.0062123465386099098 0.033775015646572676 0.085328010015416456 0.042281048673362492 0.018952682526498111 0.056394262992799864 0.044722381548547796 0.016570621073852775 0.082229039953285565
leaf_weight=22073.265952296555 14255.741089522839 28920.028907127678 97547.704342663288 65850.732614427805 39626.193567074835 110388.60085374117 96951.766059234738 6758.9464286714792 35388.79492212832 39303.32858132571 27684.145388528705 117193.69218453765 96029.090403556824 52659.359582275152 108156.78673711419 29733.29572506994 40842.384970411658 134626.06276905537 19731.549395576119 48850.119512498379 106577.08363036811 12038.503922499716 69264.398897200823 83812.696615755558 65021.567046374083 50039.206074044108 50697.180494904518 18717.902842670679 14233.973815150559 140758.82324649394
leaf_count=108057 120587 270086 129979 196049 469288 78311 168053 18387 126474 200905 216476 144523 204373 129764 281073 148021 291072 153615 173114 173586 187614 119446 325801 72804 235518 305960 101968 78904 71939 121851
internal_value=0.0561226 0.0306048 0.0695692 0.0415217 0.0109037 0.0764148 0.0533968 0.0712548 0.0302778 0.0212329 -0.00241778 0.0657542 0.0521226 0.0434964 0.0608296 0.0208808 0.011337 0.0826022 -0.0113894 0.0457232 0.0689182 0.0109885 0.0387208 0.0797843 0.0479254 0.0245736 0.0534319 0.0331313 0.0291409 0.0855879
internal_weight=1.84373e+06 636275 1.20746e+06 409411 226864 848361 359097 462587 198681 127784 99080.4 281227 210730 153988 205109 94028.2 69762.4 385773 59357.7 114701 223771 39722.6 104653 181360 117681 79772.5 57456.1 58021.2 36307.2 251147
internal_count=5423598 3420142 2003456 1600851 1819291 1009052 994404 655275 1026843 840967 978324 452492 574008 545278 449126 574568 561158 353777 642402 369635 332137 335922 452275 202783 365282 453981 120355 279809 179996 200162
is_linear=0
shrinkage=0.05


Tree=13
num_leaves=31
num_cat=0
split_feature=13 10 13 10 9 13 9 10 13 13 9 8 7 7 13 13 9 10 9 10 0 10 10 9 9 8 10 0 5 10
split_gain=226934 51480.7 47674.2 16120.4 14761.8 13334.2 6818.25 6270.08 5665.33 5657.17 5457.67 4384.14 3191.9 2929.36 2894.89 2685.91 2326.63 2256.69 2076.85 2018.86 4660.3 1888.54 1775.3 1767.61 1677.9 1629.1 1452.24 1747.46 1433.1 1429.23
threshold=3.5000000000000004 2.5000000000000004 8.5000000000000018 2.5000000000000004 0.56044841302628645 17.500000000000004 0.37276268331015461 1.5000000000000002 1.5000000000000002 1.5000000000000002 0.36024784732278581 6825.0000000000009 15560.000000000002 1260.5000000000002 1.5000000000000002 36.500000000000007 0.69174612227957277 1.5000000000000002 0.74265706836885925 8.5000000000000018 14.500000000000002 8.5000000000000018 1.5000000000000002 0.71105071610813853 0.17868968779564801 8849.5000000000018 6.5000000000000009 34.500000000000007 16.790570175438599 1.5000000000000002
decision_type=2 2 2 2 2 2 2 2 2 2 2 2 2 2 2 2 2 2 2 2 2 2 2 2 2 2 2 2 2 2
left_child=1 4 3 6 10 7 -2 13 19 23 24 15 22 -4 -12 17 26 -7 29 20 -3 -5 -8 -6 -1 -9 27 -10 -16 -11
right_child=2 8 5 21 9 11 12 25 16 18 14 -13 -14 -15 28 -17 -18 -19 -20 -21 -22 -23 -24 -25 -26 -27 -28 -29 -30 -31
leaf_value=0.0085184130526574989 0.01178087819123632 0.080767613695500326 0.00094573533233872648 0.05115252240735646 0.064204058202548944 -0.010558273662215831 0.029070699420720644 0.027026053002704959 0.064454231593266187 0.048502129418092663 0.055344561091327349 0.015909256315213113 0.04610805508410111 0.019508498888174543 0.039186883976090908 -0.023872734954733701 0.075947734941937406 0.010548453302734771 0.066847381246538023 0.083878118719039052 0.066887428502316437 0.065954544266566037 0.040601669409502238 0.075356524431451924 0.033831667418594731 0.043483667466541871 0.072087564098745047 0.045356065264086518 0.053065035313573365 0.058764923915013347
leaf_weight=7834.9207033216953 34099.92577470839 187358.28131252527 35966.314401403069 100939.78340925276 129255.0698762238 33330.948432125151 119047.23540254682 54117.770112328231 87859.283877238631 93744.400215253234 86049.184238061309 24757.001768812537 56068.82352514565 51954.6351249367 72309.448580905795 20334.215117365122 77676.468190789223 20423.999621734023 29049.565874382854 128187.12709973752 89294.806861102581 27397.806955128908 46385.359714716673 48997.36389914155 39810.461643829942 20822.34833907336 52537.798188149929 13868.018315553665 25044.417355969548 53162.682124316692
leaf_count=45854 226406 155021 323831 241282 202817 376974 580302 257750 129815 247674 181194 190008 183955 350751 233354 249422 84665 161920 50653 93221 106011 44694 152509 59079 159536 80338 58900 28231 72134 95297
internal_value=0.0526144 0.0652828 0.0286363 0.0398537 0.0545782 0.0121798 0.032594 0.0209724 0.0751213 0.0609916 0.0447461 -0.00230705 0.0357981 0.0119149 0.0486629 -0.00839406 0.0688905 -0.00253885 0.0546316 0.078691 0.0762875 0.0543125 0.0323038 0.0672696 0.0296691 0.0315989 0.065337 0.0618507 0.0427571 0.052216
internal_weight=1.86769e+06 1.22204e+06 645646 383939 585258 261707 255601 162861 636782 354209 231048 98846.2 221501 87920.9 183403 74089.2 231942 53754.9 175957 404840 276653 128338 165433 178252 47645.4 74940.1 154265 101727 97353.9 146907
internal_count=5423598 2003456 3420142 1429148 1347592 1990994 1143172 1012670 655864 655520 692072 978324 916766 674582 486682 788316 301611 538894 393624 354253 261032 285976 732811 261896 205390 338088 216946 158046 305488 342971
is_linear=0
shrinkage=0.05


Tree=14
num_leaves=31
num_cat=0
split_feature=13 11 13 11 11 9 0 13 9 7 13 9 9 13 8 13 13 13 9 11 11 7 4 0 4 9 0 0 11 11
split_gain=204798 49770.1 41833.2 17908.5 10433.6 8611.23 8361.84 8206.14 7256.73 5474.99 4073.36 3424.62 3241.9 2784.43 2632.51 2617.12 2465.91 2359.21 2142.49 2073.69 1979.78 1893.96 1704.39 3396.26 1786.87 1476.53 1389.04 1365.17 2192.91 1316.85
threshold=3.5000000000000004 1.0000000180025095e-35 11.500000000000002 1.5000000000000002 3.5000000000000004 0.57834453729519519 8.5000000000000018 30.500000000000004 0.43785548578502193 1228.5000000000002 6.5000000000000009 0.56387427417398917 0.36375202405736756 1.5000000000000002 23374.500000000004 1.5000000000000002 6.5000000000000009 1.5000000000000002 0.2148133787141154 1.5000000000000002 1.0000000180025095e-35 15560.000000000002 0.1968455042225534 8.5000000000000018 0.50824629166213342 0.36024784732278581 8.5000000000000018 38.500000000000007 19.500000000000004 6.5000000000000009
decision_type=2 2 2 2 2 2 2 2 2 2 2 2 2 2 2 2 2 2 2 2 2 2 2 2 2 2 2 2 2 2
left_child=1 5 3 8 6 12 17 9 18 20 21 25 -1 -7 19 27 29 -3 -2 -11 -4 -10 -14 -24 -25 -8 -20 -6 -29 -5
right_child=2 4 7 16 15 13 11 -9 10 14 -12 -13 22 -15 -16 -17 -18 -19 26 -21 -22 -23 23 24 -26 -27 -28 28 -30 -31
leaf_value=0.025235350586999647 -0.007138863006068529 0.073167445713272258 -0.0081799594760113749 0.049750465547374959 0.079054944228808821 0.059812812158304508 0.03200986364447763 -0.014426556503269067 0.033399390201858364 0.010900976915177153 0.023704708991234884 0.060716535129077875 0.032215078276422227 0.047820291633758436 0.041043237146695451 0.06855932552707121 0.03991407612033189 0.062882892943424473 0.030263707360383387 0.029127579970051682 0.01198258545285107 0.045723206394908539 0.053758616013094278 0.026734427562163106 0.045182696688012336 0.050784985047745805 0.01268042889797842 0.061268915056958653 0.081864492720915172 0.062620813430130706
leaf_weight=37605.697045952082 10629.538413919508 156891.00434961915 33913.151597872376 73900.123651772738 198776.41128325462 91749.848708316684 12368.433958157897 37623.952858835459 111949.94210898876 56233.110923908651 95460.475308135152 147705.21934112906 35177.478815808892 102443.66040617228 12083.301184549928 136612.38088734448 53216.300163805485 86507.991308704019 15202.120742313564 21599.353505253792 18993.799878843129 43209.009686291218 53671.836393103004 26497.518985718489 26009.712916404009 68285.783268675208 43007.464195430279 30429.292638525367 22467.171805173159 27185.847180038691
leaf_count=179996 92182 153278 359249 163825 150871 151030 31053 430191 438041 447333 501633 214949 108218 250957 64035 153615 161848 127868 82600 112386 122981 131056 140507 87296 76400 128127 271088 33957 15334 41694
internal_value=0.049448 0.0614442 0.026835 0.0346381 0.0680606 0.0461948 0.0630644 0.00634799 0.0278819 0.0118206 0.0318314 0.0561919 0.0382826 0.0534864 0.01933 0.0741309 0.0486256 0.0695121 0.0135031 0.0159591 -0.000941528 0.0368314 0.0417537 0.0449138 0.0358729 0.0479058 0.0172725 0.0771553 0.0700167 0.0532118
internal_weight=1.88741e+06 1.2332e+06 654207 473761 860044 373156 471758 180447 319459 142823 250619 228359 178962 194194 89915.8 388285 154302 243399 68839.1 77832.5 52907 155159 141357 106179 52507.2 80654.2 58209.6 251673 52896.5 101086
internal_count=5423598 2003456 3420142 1883967 1009052 994404 655275 1536175 1516600 1105984 1070730 374129 592417 401987 623754 353777 367367 281146 445870 559719 482230 569097 412421 304203 163696 159180 353688 200162 49291 205519
is_linear=0
shrinkage=0.05


Tree=15
num_leaves=31
num_cat=0
split_feature=13 10 13 10 9 13 13 7 9 7 13 13 13 0 10 9 10 0 9 10 0 8 7 0 10 0 7 5 9 10
split_gain=184061 48672.3 37011.5 16749.7 12107.9 6572.55 6069.66 6037.63 5062.23 4403.21 4345.11 4004.87 3389.88 2998.12 2656.44 2440.46 2368.62 2357.77 2149.6 2118.57 1736.19 1729.02 1568.38 1518.85 1580.3 2383.86 1471.99 1411.55 1385.33 1356.41
threshold=3.5000000000000004 2.5000000000000004 12.500000000000002 1.5000000000000002 0.59119582620217537 30.500000000000004 1.5000000000000002 1379.5000000000002 0.36024784732278581 9362.5000000000018 1.5000000000000002 6.5000000000000009 1.5000000000000002 10.500000000000002 1.5000000000000002 0.15461234713091801 6.5000000000000009 14.500000000000002 0.69713348665334995 6.5000000000000009 10.500000000000002 638.50000000000011 2975.5000000000005 56.500000000000007 6.5000000000000009 13.500000000000002 102605.50000000001 16.790570175438599 0.74661474183261445 1.5000000000000002
decision_type=2 2 2 2 2 2 2 2 2 2 2 2 2 2 2 2 2 2 2 2 2 2 2 2 2 2 2 2 2 2
left_child=1 4 3 7 8 9 18 15 21 14 28 19 29 -9 -4 -2 17 -8 23 -5 -17 -1 -13 24 25 -3 -12 -14 -6 -10
right_child=2 6 5 11 10 -7 16 13 12 -11 26 22 27 -15 -16 20 -18 -19 -20 -21 -22 -23 -24 -25 -26 -27 -28 -29 -30 -31
leaf_value=0.033219742986226451 -0.020004257475151995 0.070651137454234889 -0.0028801028085512752 0.042879785856654522 0.058110847320176406 -0.013953032179633944 0.063001797494380812 0.036541344108116013 0.045434348146475678 0.025092146866164185 0.047058153096528915 0.02575037087763124 0.034758321515479577 0.022266024084772278 0.014634439695657918 0.022682988686063423 0.067485184976748602 0.050168950603638407 0.075897395600200201 0.056995096828988949 0.008926152892102324 0.013966498005208964 0.038598798930687288 0.050996119375575993 0.07470532572910335 0.057430078948186906 0.063564516155640655 0.04674101970182002 0.069788074117072135 0.056673579604857444
leaf_weight=30330.030669443309 5268.0296876654029 101672.89834612608 53839.497906662524 124091.78159670532 123619.92673872411 37144.613796144724 78680.999673604965 70553.516176052392 71544.27284181118 34857.640617370605 138999.32010477781 42240.269765153527 95870.54372921586 76836.248004861176 36209.22565779835 40944.104136146605 90400.355761140585 65664.226809471846 153890.71512913704 33829.948291540146 52143.620892994106 18944.44756706059 54263.516441375017 11953.336875125766 85487.397492751479 51296.468560606241 14960.095603093505 33049.296631515026 31966.597281694412 42966.312112823129
leaf_count=123364 53215 91523 546279 313620 181539 429754 99373 271944 161350 209195 299770 163716 288021 397295 230755 214434 93769 108923 114542 53502 357130 82847 178324 15534 67159 65537 23745 88369 35978 63887
internal_value=0.0465658 0.0579221 0.025279 0.0320073 0.0477232 0.00451223 0.0675337 0.0226973 0.0404326 0.0100034 0.0546172 0.0409997 0.043391 0.0290994 0.00416262 0.0131034 0.0611387 0.057164 0.0712467 0.0459036 0.014977 0.0258175 0.032975 0.0683886 0.0692605 0.0662176 0.0486621 0.0378302 0.06051 0.0496515
internal_weight=1.90352e+06 1.2413e+06 662222 500171 602251 162051 639046 245746 292705 124906 309546 254426 243430 147390 90048.7 98355.8 234746 144345 404301 157922 93087.7 49274.5 96503.8 250410 238457 152969 153959 128920 155587 114511
internal_count=5424393 2005230 3419163 2003180 1348870 1415983 656360 1294018 807838 986229 541032 709162 601627 669239 777034 624779 302065 208296 354295 367122 571564 206211 342040 239753 224219 157060 323515 376390 217517 225237
is_linear=0
shrinkage=0.05


Tree=16
num_leaves=31
num_cat=0
split_feature=13 10 13 10 9 13 9 13 13 13 7 9 9 10 0 0 4 9 13 10 10 10 8 10 10 0 0 10 10 10
split_gain=167781 47158.4 32626.5 15277.6 11087.3 6082 5866.54 5550.58 5296.69 4084.94 3846.57 3331.64 3050.22 2342.89 2654.74 2329.55 2127.2 2098.04 2023.35 2012.22 1958.41 1939.31 1760.55 1743.16 1533.71 1502.56 1481.29 2511.38 1389.31 1358.99
threshold=3.5000000000000004 2.5000000000000004 13.500000000000002 1.5000000000000002 0.53084861517365434 1.5000000000000002 0.61577924544843521 1.5000000000000002 33.500000000000007 6.5000000000000009 1814.5000000000002 0.31378668207795551 0.25154534136318435 12.500000000000002 35.500000000000007 12.500000000000002 0.38123273480662989 0.69713348665334995 1.5000000000000002 3.5000000000000004 1.5000000000000002 1.5000000000000002 44156.000000000007 2.5000000000000004 5.5000000000000009 10.500000000000002 26.500000000000004 14.500000000000002 1.5000000000000002 5.5000000000000009
decision_type=2 2 2 2 2 2 2 2 2 2 2 2 2 2 2 2 2 2 2 2 2 2 2 2 2 2 2 2 2 2
left_child=1 4 3 6 11 17 12 21 10 19 28 -1 -2 14 -7 16 -14 26 -13 -5 -9 -6 25 -12 -11 -8 29 -28 -4 -3
right_child=2 5 8 9 7 13 22 20 -10 24 23 18 15 -15 -16 -17 -18 -19 -20 -21 -22 -23 -24 -25 -26 -27 27 -29 -30 -31
leaf_value=0.020369913033435282 -0.0059871168979567461 0.064222367834277205 -0.008939855843194856 0.037816805259743132 0.051089996891593617 0.058333064623454722 0.036549491908415381 0.040082240960066989 -0.015772671136469931 0.027112175319838717 0.01055037525742129 0.043930223670748947 0.016948957438994491 0.069775575152483102 0.042703913571895534 0.011064011186914826 0.033299071988488776 0.072627123461007054 0.03289414953873708 0.049061671786078676 0.050207642382365261 0.060936552167569852 0.056299469426201093 0.028666099130657499 0.041545225956192727 0.022834171853918311 0.051620156940801104 0.07261069085200568 0.0083222079750100899 0.073122437389588693
leaf_weight=32010.409796141088 15008.333355724812 118224.58907444775 32057.942605733871 86010.5136834234 114371.65731360018 167775.78868059814 38630.702176779509 131605.60161985457 30356.96819127351 81982.824538528919 46245.069039180875 76997.711880460382 51260.635443583131 35283.971203967929 32420.311028808355 72749.657855257392 32509.676011495292 152805.61834512651 90167.806615740061 74022.66994766891 74952.461581364274 88854.868597328663 6615.2821249216795 18627.984237574041 23735.30739736557 41337.377573080361 42655.702271237969 21397.992044612765 18315.497948221862 67311.923054292798
leaf_count=145899 135297 117988 355051 232764 192910 216234 135380 326916 360208 315586 366767 166139 252009 31863 53968 461428 158722 114542 284658 134358 127104 105244 19375 100438 61541 203156 54540 16276 127083 50949
internal_value=0.043936 0.054777 0.0237454 0.0295646 0.0448248 0.0642781 0.0209006 0.0495284 0.00280842 0.0379796 0.00770285 0.0351477 0.015545 0.0578958 0.055802 0.0176096 0.0232941 0.0680129 0.0379774 0.0430181 0.0437564 0.0553951 0.0315104 0.0157522 0.0303526 0.0294597 0.065188 0.0586323 -0.00266347 0.0674513
internal_weight=1.9163e+06 1.24684e+06 669466 523863 608961 637876 258112 409785 145603 265751 115246 199176 171528 235480 200196 156520 83770.3 402396 167166 160033 206558 203227 86583.4 64873.1 105718 79968.1 249590 64053.7 50373.4 185537
internal_count=5424393 2005230 3419163 2109616 1348870 656360 1365367 752174 1309547 744249 949339 596696 1007456 302065 270202 872159 410731 354295 450797 367122 454020 298154 357911 467205 377127 338536 239753 70816 482134 168937
is_linear=0
shrinkage=0.05


Tree=17
num_leaves=31
num_cat=0
split_feature=13 13 10 10 13 9 9 10 9 10 9 7 9 10 9 10 0 6 10 7 5 8 5 9 0 10 13 0 10 0
split_gain=154372 44159.1 32758.6 15925.5 10236.6 7476.84 7000.65 5084.59 3551.78 3241.61 3105.27 3069.2 3058.68 2416.37 2280.87 2235.23 4427.19 2194.15 1899.51 1819.99 1711.19 1468.52 1439.58 1429.82 1398.51 1416.41 1361.64 1304.63 1302.14 1336.57
threshold=2.5000000000000004 7.5000000000000009 2.5000000000000004 2.5000000000000004 17.500000000000004 0.61577924544843521 0.54397750303041248 2.5000000000000004 0.69713348665334995 1.5000000000000002 0.30236657397214078 4026.5000000000005 0.35746212076103828 1.5000000000000002 0.65505806422905033 6.5000000000000009 13.500000000000002 102441.50000000001 1.5000000000000002 2417.0000000000005 18.167670682730925 429.50000000000006 16.476731601731604 0.15461234713091801 38.500000000000007 15.500000000000002 43.500000000000007 5.5000000000000009 7.5000000000000009 29.500000000000004
decision_type=2 2 2 2 2 2 2 2 2 2 2 2 2 2 2 2 2 2 2 2 2 2 2 2 2 2 2 2 2 2
left_child=2 3 5 6 7 12 10 11 15 19 -2 23 21 20 28 16 -4 -8 -7 -6 -14 -1 -12 -3 -17 -26 -11 -15 29 -5
right_child=1 4 8 14 9 18 17 -9 -10 26 22 -13 13 27 -16 24 -18 -19 -20 -21 -22 -23 -24 -25 25 -27 -28 -29 -30 -31
leaf_value=0.035238880301386735 0.0041322571719556523 -0.0240696895363645 0.06257208648845404 0.042391577308800818 -0.017391035562217865 0.04790958653583971 0.032459527317773983 0.029528182057003551 0.068286959348385204 0.012841029609561964 0.020301475908576352 0.020862458339052613 0.035052491893440112 0.056627199824325618 0.052077780796694367 0.068522059766415941 0.048168113909182936 0.049062829815867591 0.057440898895956251 0.0001277411508507853 0.048677726901461792 0.014949536074624781 0.032335989952874032 0.0078302437413826486 0.047705217564404684 0.066972613198079858 -0.014570434305851761 0.043663276877617091 0.051001754249318833 0.029191854934254947
leaf_weight=19456.055957391858 24981.586823321879 3661.3286210298538 136187.5622690767 64991.883198946714 32688.176875852048 118997.55749277771 199904.09934940934 61009.745301544666 200494.72083580494 33443.64422955364 97444.506979942322 63837.469441831112 116900.94129864872 30578.968556314707 84046.672218963504 91716.3204241395 87698.692771956325 22097.987286388874 93223.693323165178 27129.355264261365 28701.115653276443 16466.180123463273 33355.57477170229 86533.6234613657 19494.048252165318 18677.616154611111 5240.2645841091871 53117.86784440279 26887.986333712935 27205.980193525553
leaf_count=71144 162953 38927 134528 128749 409014 208322 625415 213875 163514 249824 411387 332240 294303 40417 135575 75249 124038 50468 115111 261497 63541 65929 128737 625331 24653 15639 56612 93382 39312 64707
internal_value=0.0415214 0.0263193 0.0547012 0.0344812 0.0111973 0.0451016 0.0284106 0.0173118 0.0629702 -0.00215142 0.0202853 0.0124731 0.0395046 0.0416298 0.0457711 0.0599571 0.0569299 0.0341122 0.0520965 -0.00944565 0.0377383 0.0259386 0.0233704 0.00653531 0.065175 0.0571329 0.00912777 0.0483997 0.0413201 0.0384966
internal_weight=1.92617e+06 894460 1.03171e+06 580916 313544 477442 377784 215042 554269 98501.4 155782 154032 265221 229299 203133 353774 223886 222002 212221 59817.5 145602 35922.2 130800 90195 129888 38171.7 38683.9 83696.8 119086 92197.9
internal_count=5424393 3934623 1489770 1747303 2187320 952149 1378960 1210373 537621 976947 703077 996498 628716 491643 368343 374107 258566 675883 323433 670511 357844 137073 540124 664258 115541 40292 306436 133799 232768 193456
is_linear=0
shrinkage=0.05


Tree=18
num_leaves=31
num_cat=0
split_feature=13 13 10 10 13 9 10 9 10 10 0 7 10 0 9 5 7 0 0 9 8 0 4 1 0 13 7 9 0 9
split_gain=142470 39165.9 32144.6 14592.4 9301.22 7005.81 5675.98 4743.92 4072.96 3554.63 6550.12 3476.78 3440.35 2869.3 2097.12 2044.73 1973.89 1910.72 1755.56 1731.4 1564.68 1542.61 2266.12 1534.82 1526.19 1463.6 1451.1 1439.49 1425.91 1400.81
threshold=2.5000000000000004 7.5000000000000009 2.5000000000000004 1.5000000000000002 23.500000000000004 0.65160734617925098 2.5000000000000004 0.54397750303041248 5.5000000000000009 8.5000000000000018 17.500000000000004 1325.5000000000002 1.5000000000000002 21.500000000000004 0.22397916666666667 18.010000000000002 33818.500000000007 4.5000000000000009 6.5000000000000009 0.40128485398449104 44156.000000000007 14.500000000000002 0.38123273480662989 12.770979020979022 59.500000000000007 46.500000000000007 24834.000000000004 0.15461234713091801 5.5000000000000009 0.50488739589013654
decision_type=2 2 2 2 2 2 2 2 2 2 2 2 2 2 2 2 2 2 2 2 2 2 2 2 2 2 2 2 2 2
left_child=2 3 5 7 6 12 11 14 13 10 -4 27 15 26 -2 19 25 -14 23 -1 -13 22 -16 -9 -12 -6 -5 -3 -7 -15
right_child=1 4 9 8 16 28 -8 18 -10 -11 24 20 17 29 21 -17 -18 -19 -20 -21 -22 -23 -24 -25 -26 -27 -28 -29 -30 -31
leaf_value=0.021275834949034449 -0.0059525166778750041 -0.025619184151804582 0.061754911642522115 0.037455727503466388 -0.0057884434861120203 0.056193172191123478 0.026656284713157105 0.049852054427114205 0.049040460764153054 0.066334063057969614 0.048952870446626065 0.014446433016476494 0.055896866783095717 0.016548855368622242 0.016088863396381988 0.044467381383488186 0.019613346816829004 0.041300379110062096 0.02535130608799991 0.034379532388388909 0.046456810204086284 0.0084994274403605748 0.033982004885607972 0.031724909162330908 0.025875235987684771 -0.025340575073628836 0.048990258542827396 0.0033570438980118655 0.046745294524156461 0.032282005291426774
leaf_weight=31064.539357990026 9595.730146355927 4574.8443675041199 272893.27366195619 120160.34332850575 40437.933140851557 73273.291526198387 71488.870532654226 15448.932830244303 86408.114494115114 166567.19241183996 103415.21479173005 108378.47770644724 30578.695065826178 19583.519258931279 53534.971092157066 40351.322635598481 6102.5730356797576 84033.075901687145 92859.393209204078 133729.43415258825 3956.9194463640451 28753.91071125865 26431.336247093976 47829.952090367675 7697.4322706609964 12539.337518066168 35270.73668462038 67916.145014561713 87776.285939723253 50971.014504164457
leaf_count=124421 77642 50419 256552 273871 449803 96623 267265 38120 128095 133021 134274 654125 38764 59341 239682 95320 47753 145563 339033 313930 15692 153062 115411 134548 13774 160127 65111 542136 137528 123387
internal_value=0.0392912 0.0247803 0.0519852 0.0324174 0.0105702 0.0425394 0.0146926 0.0240056 0.0398076 0.060234 0.057588 0.0100651 0.0382561 0.0362773 0.0164541 0.0343795 -0.00731442 0.0451948 0.0297279 0.0319094 0.015574 0.0184317 0.0220031 0.0361505 0.0473541 -0.0104163 0.0400732 0.00152838 0.0510438 0.027915
internal_weight=1.93362e+06 902243 1.03138e+06 586848 315395 480807 256315 274454 312394 550573 384006 184826 319757 225986 118316 205145 59079.8 114612 156138 164794 112335 108720 79966.3 63278.9 111113 52977.3 155431 72491 161050 70554.5
internal_count=5424393 3934623 1489770 1747303 2187320 952149 1529637 1097498 649805 537621 404600 1262372 717998 521710 585797 533671 657683 184327 511701 438351 669817 508155 355093 172668 148048 609930 338982 592555 234151 182728
is_linear=0
shrinkage=0.05


Tree=19
num_leaves=31
num_cat=0
split_feature=13 13 10 10 13 9 9 10 9 7 7 9 10 7 10 10 0 10 0 10 4 0 0 1 0 8 0 10 0 9
split_gain=131727 34840.3 31526.7 13639.9 8328.25 6628.58 5591.76 4176.92 3608.17 3155.91 2868.04 2357.4 2333.47 2136.13 2088.16 1850.72 1700.77 1827.6 2086.85 1790.58 1669.91 3194.18 1690.71 1821.86 1666.21 1455.36 1448.64 1352.26 2681.44 1278
threshold=2.5000000000000004 7.5000000000000009 2.5000000000000004 2.5000000000000004 17.500000000000004 0.59119582620217537 0.38591723874904654 1.5000000000000002 0.62611363047132751 23985.000000000004 2417.0000000000005 0.35249402708795435 1.5000000000000002 4133.0000000000009 11.500000000000002 1.5000000000000002 39.500000000000007 5.5000000000000009 7.5000000000000009 14.500000000000002 0.33288288288288292 10.500000000000002 6.5000000000000009 12.508620689655173 37.500000000000007 23910.500000000004 4.5000000000000009 9.5000000000000018 14.500000000000002 0.15461234713091801
decision_type=2 2 2 2 2 2 2 2 2 2 2 2 2 2 2 2 2 2 2 2 2 2 2 2 2 2 2 2 2 2
left_child=2 3 5 6 7 11 29 13 16 20 -6 -1 -7 -3 24 -13 17 18 -4 -18 22 -22 23 -8 -5 -12 -14 28 -10 -2
right_child=1 4 8 14 10 12 9 -9 27 -11 25 15 26 -15 -16 -17 19 -19 -20 -21 21 -23 -24 -25 -26 -27 -28 -29 -30 -31
leaf_value=0.022244825099777026 -0.013643684710509722 0.0033363741674488807 0.059413994181356858 0.041474163282362642 -0.010739068432458747 0.041628764708692111 0.040833928311646138 0.022714466843609591 0.062781491149564828 0.036810991158673902 0.0028685213252049643 0.032634099503066359 0.059647291919802219 0.01722079240111311 0.053818085417846245 0.042751917130123371 0.033348550795610429 0.06104049662028449 0.045508663677055819 0.059785260637059245 0.036272706924139198 0.022225614438803519 0.011504609044055026 0.020154513927608468 0.029664905201041227 0.0274267752307015 0.047308431399338088 0.065673679630772322 0.051475252732089409 0.01218537989290706
leaf_weight=35550.066618531942 5360.9334758743644 69405.704450778663 42724.156735271215 140202.84409676492 48632.268946841359 143129.93463136256 13841.167830705643 103345.04507147521 149025.07282948494 69386.115375369787 42635.945367008448 127071.5376265794 35466.435282215476 46103.416833430529 27258.912536293268 70146.189847677946 20631.325866758823 66288.788314983249 73226.82734271884 9288.6699420809746 67636.9682828933 100753.063943699 38560.627886869013 46206.381014972925 37955.321701616049 7027.0347269847989 72238.768969789147 104002.78528285027 80914.434848159552 44895.884755365551
leaf_count=133394 44155 553883 40417 253671 552552 254374 38611 406383 126670 173720 378089 314712 36822 250107 34416 113848 32927 59570 98455 8358 207442 374790 153841 147822 80256 46306 98999 79243 91981 238579
internal_value=0.037224 0.0233547 0.0494702 0.0305183 0.00998171 0.0401732 0.0249866 0.0154118 0.0577033 0.0273108 -0.00210828 0.0340964 0.0458122 0.00887809 0.0409302 0.0362328 0.0526043 0.0544182 0.0506323 0.0415558 0.0248419 0.0278679 0.0196746 0.0249212 0.0389583 0.00634338 0.0513715 0.0609427 0.0588029 0.00943017
internal_weight=1.93891e+06 909208 1.0297e+06 592058 317149 483603 386641 218854 546102 336384 98295.2 232768 250835 115509 205417 197218 212160 182240 115951 29920 266998 168390 98608.2 60047.5 178158 49663 107705 333942 229940 50256.8
internal_count=5424393 3934623 1489770 1747303 2187320 952149 1378960 1210373 537621 1096226 976947 561954 390195 803990 368343 428560 239727 198442 138872 41285 922506 582232 340274 186433 333927 424395 135821 297894 218651 282734
is_linear=0
shrinkage=0.05


Tree=20
num_leaves=31
num_cat=0
split_feature=13 13 10 10 13 9 7 10 10 2 10 8 9 10 13 10 9 7 10 1 9 8 13 1 4 1 9 7 8 10
split_gain=122028 30957.4 30377.7 12653.6 7440.82 6207.21 3947.7 3610.36 3569.52 3556.32 3511.34 3354.01 2245.15 2222.11 2211.92 2180.32 2178.88 2089.65 1743.11 1396.83 1359.72 1272.27 1214.75 1201.66 1778.52 1145.84 1133.51 1037.31 1027.52 1010.3
threshold=2.5000000000000004 7.5000000000000009 2.5000000000000004 1.5000000000000002 16.500000000000004 0.59119582620217537 9362.5000000000018 6.5000000000000009 2.5000000000000004 176.50000000000003 5.5000000000000009 14329.000000000002 0.36868933913446444 1.5000000000000002 41.500000000000007 1.5000000000000002 0.5123858141953791 669.50000000000011 1.5000000000000002 6.0865817091454284 0.17868968779564801 23910.500000000004 1.5000000000000002 16.718253968253972 0.35039615696550003 5.9457002457002464 0.74265706836885925 102605.50000000001 45630.500000000007 14.500000000000002
decision_type=2 2 2 2 2 2 2 2 2 2 2 2 2 2 2 2 2 2 2 2 2 2 2 2 2 2 2 2 2 2
left_child=2 3 5 6 8 15 12 9 17 22 16 14 -2 26 18 20 -5 -3 -6 -11 -1 -19 -4 -22 -25 -9 -7 -18 -8 -27
right_child=1 4 7 10 11 13 28 25 -10 19 -12 -13 -14 -15 -16 -17 27 21 -20 -21 23 -23 -24 24 -26 29 -28 -29 -30 -31
leaf_value=0.0037465706757748318 0.0059353384340284226 0.0015108542015863508 0.058297962572994716 0.024110049166388384 -0.0073313027679137738 0.037410981203674212 0.028648362298945285 0.051681499069156804 0.025194185023851748 0.028610935800384547 0.044256244083436591 0.020948133427533041 0.019777686974145052 0.049022239399522098 -0.021534703345564121 0.039001171920362787 0.034187899610830873 0.012581613290252825 0.0079991013771886551 0.046839553045706098 0.025276880447695899 0.0294960562315301 0.049306634573465451 0.02882856832597443 0.045373434613255367 0.059334704423846876 0.048813181148020031 0.049114714472351738 0.048550818634052376 0.06729635768771268
leaf_weight=5225.0272488519549 35661.103696063161 42898.751716732979 147335.92234534025 58561.192398190498 46015.415673419833 117546.68531881273 73814.68108278513 33579.325802490115 60835.665729418397 11661.072918176651 86461.63595533371 14801.284555524588 164044.38720655441 107461.22853592038 16092.363650895655 79579.457888931036 158625.20296220481 94741.408414706588 31056.166963264346 106406.33175565302 75908.798445016146 12595.455918580294 50419.410969734192 49698.24221406877 24129.762655764818 134294.4982239306 26758.244784206152 12560.560979634523 7109.7607977837324 56656.416532427073
leaf_count=28343 225304 332074 132582 156870 511884 216203 219772 34241 202096 19452 127859 97937 637214 135628 209268 134554 343112 555095 229396 133421 211114 50111 60555 131698 55833 117156 38606 21398 15123 39802
internal_value=0.0353562 0.0220881 0.0471927 0.0288089 0.00951496 0.0381266 0.0210809 0.0553519 0.0149761 0.0519059 0.0356674 -0.00116164 0.0173059 0.0435789 -0.0046743 0.032274 0.0324352 0.0108385 -0.00115388 0.0450392 0.0288193 0.0145664 0.0560055 0.0296942 0.0342361 0.0601991 0.0395253 0.0352831 0.0303969 0.061697
internal_weight=1.94254e+06 915875 1.02666e+06 596839 319037 486307 280630 540353 211071 315823 316209 107965 199705 251766 93163.9 234541 229747 150236 77071.6 118067 154962 107337 197755 149737 73828 224530 144305 171186 80924.4 190951
internal_count=5423701 3934513 1489188 1746652 2187861 951979 1097413 537209 1139376 346010 649239 1048485 862518 390437 950548 561542 521380 937280 741280 152873 426988 605206 193137 398645 187531 191199 254809 364510 234895 156958
is_linear=0
shrinkage=0.05


Tree=21
num_leaves=31
num_cat=0
split_feature=13 10 13 9 10 13 10 13 0 13 7 9 10 10 9 0 10 0 9 7 10 0 1 0 0 10 7 1 0 9
split_gain=113283 39676.2 17878.6 8021.55 8011.92 6393.09 4863.81 3709.15 3300.78 3282.32 3252.44 2374.46 2275.81 2216.1 2144.82 1847.46 1844.14 1813.52 1797.73 1786.31 1534.01 1531.37 1549.88 1314.57 1241.56 2399.18 1166.49 1136.55 1126.26 1090.55
threshold=3.5000000000000004 2.5000000000000004 10.500000000000002 0.61456319274673687 1.5000000000000002 1.5000000000000002 1.5000000000000002 1.5000000000000002 21.500000000000004 1.5000000000000002 7385.5000000000009 0.37276268331015461 8.5000000000000018 4.5000000000000009 0.68104686128389735 16.500000000000004 4.5000000000000009 17.500000000000004 0.15461234713091801 574.50000000000011 1.5000000000000002 12.500000000000002 11.015625000000002 8.5000000000000018 17.500000000000004 10.500000000000002 27456.000000000004 16.718253968253972 6.5000000000000009 0.73827352228816545
decision_type=2 2 2 2 2 2 2 2 2 2 2 2 2 2 2 2 2 2 2 2 2 2 2 2 2 2 2 2 2 2
left_child=1 3 4 7 10 14 8 20 -4 29 18 -9 17 15 24 -6 26 -7 -2 -10 27 22 -20 -13 -3 -26 -8 -1 -11 -5
right_child=2 5 6 9 13 12 16 11 19 28 -12 23 -14 -15 -16 -17 -18 -19 21 -21 -22 -23 -24 -25 25 -27 -28 -29 -30 -31
leaf_value=0.025551814738173636 -0.019431352836161493 0.055475741338155353 0.010712001816358717 0.043090186227758044 0.030962086083938568 0.046416079859824572 0.0068441847728128377 0.011887188726103887 -0.018469032200288647 0.039176065193494036 0.024660227393102543 0.030468658319583689 0.053337828978120151 0.035681313704073347 0.05977512045393344 0.020468643719282809 0.026121484010605558 0.035956665527920782 0.029757674961742815 -0.0022752519852153466 0.040865938782084277 0.0070490098072088824 0.013845384799072602 0.021252431188332681 0.041290369761565943 0.058266595796334635 0.024450887486883177 0.03594416481703009 0.030140471169901609 0.05335011507957365
leaf_weight=52554.459549084306 4382.4714790582657 123865.86047585309 37752.12630213052 101310.30079415441 82864.037089422345 101135.98789264262 56885.684190459549 32910.859242670238 24497.864051580429 70735.505185171962 76379.484790667892 93124.887251734734 61569.075905829668 81953.13693228364 170485.11122980714 84940.816779121757 23029.754071108997 70214.508164614439 19176.192958578467 55860.232623405755 58279.542020127177 63930.870871752501 75760.820728644729 66194.360408335924 54950.32190977037 33500.601625427604 11271.212871097028 52680.862064361572 67300.498373776674 34795.119028642774
leaf_count=129100 45388 115825 288583 143796 213729 127856 372825 144314 300798 128455 267028 233546 62354 154164 139137 257777 108231 111112 84524 542499 87168 371217 358853 185899 70884 28341 54328 115520 140865 39585
internal_value=0.0335595 0.0425985 0.0174448 0.0337758 0.0226754 0.0516243 0.00521437 0.0288226 -0.00148291 0.0402034 0.0161441 0.0241138 0.0450927 0.0289419 0.0555985 0.0256504 0.0138891 0.0421301 0.0121597 -0.00721207 0.0343582 0.0130311 0.0170595 0.0266395 0.0522447 0.0477201 0.00975583 0.0307542 0.0347707 0.0457131
internal_weight=1.94429e+06 1.24561e+06 698685 629886 489388 615721 209297 355745 118110 274141 239630 192230 232920 249758 382802 167805 91186.7 171350 163250 80358.1 163515 158868 94937 159319 212317 88450.9 68156.9 105235 138036 136105
internal_count=5423701 2003757 3419944 1348248 1752680 655509 1667264 895547 1131880 452701 1127010 563759 301322 625670 354187 471506 535384 238968 859982 843297 331788 814594 443377 419445 215050 99225 427153 244620 269320 183381
is_linear=0
shrinkage=0.05


Tree=22
num_leaves=31
num_cat=0
split_feature=13 10 13 10 13 9 9 10 9 8 10 0 4 4 13 7 13 9 9 0 10 5 0 10 9 0 7 9 0 4
split_gain=105754 29040.6 25276.1 9909.34 7259.69 5528.42 3773.68 3682.67 3680.08 2878.83 2419.74 2299.63 3323.65 2450.01 2215.37 1910.37 1759.72 1732.39 1729.42 1614.31 1552.11 1495.92 1465.51 2478.68 1436.46 1418.29 1299.56 1053.44 1010.06 1071.01
threshold=2.5000000000000004 2.5000000000000004 6.5000000000000009 2.5000000000000004 16.500000000000004 0.57529105184784102 0.47666651373332791 1.5000000000000002 0.59473182994832574 23910.500000000004 1.5000000000000002 8.5000000000000018 0.28482930571538173 0.50824629166213342 41.500000000000007 451.50000000000006 1.5000000000000002 0.56044841302628645 0.6951190571071223 25.500000000000004 1.5000000000000002 13.35857142857143 12.500000000000002 7.5000000000000009 0.20373850426568657 5.5000000000000009 2975.5000000000005 0.74265706836885925 4.5000000000000009 0.15815528921313182
decision_type=2 2 2 2 2 2 2 2 2 2 2 2 2 2 2 2 2 2 2 2 2 2 2 2 2 2 2 2 2 2
left_child=1 5 3 6 7 11 24 15 22 14 27 12 28 -13 20 -4 -10 -5 21 -15 -6 -8 -3 -24 -2 -12 -9 -7 29 -1
right_child=2 8 4 17 9 10 18 26 16 -11 25 13 -14 19 -16 -17 -18 -19 -20 -21 -22 -23 23 -25 -26 -27 -28 -29 -30 -31
leaf_value=0.021866234650814904 -0.0072200680963945638 0.050413175162843195 -0.0017957906716404852 0.028298526219220826 -0.0059676126690182893 0.033099563573682843 0.019082877396352817 0.014497331879197731 0.055932712958097097 0.027225676683040479 0.050904756004559661 0.013537682459906089 0.041783001392571073 0.037528864128009772 -0.020120116153672943 0.011788957441875874 0.048204291100717916 0.038863767836615853 0.032357644343451418 0.018340476329033996 0.0079181474062359845 0.027736645654694875 0.0340422751484405 0.050990469597297805 0.014878084463675736 0.039692657562562107 0.024533672367221766 0.043966650780877893 0.017395130413678937 0.037443113369196722
leaf_weight=21385.880121558905 8056.6865952908993 65155.645749434829 34113.329702176154 54560.791071623564 48493.893440082669 132845.329122141 124256.39148285985 57315.786269888282 271198.83189706504 8219.8785477951169 48774.773646786809 43281.642905905843 54966.80329939723 28291.465315565467 16793.746259443462 107219.35306501389 101117.19658721983 134312.65182170272 57519.699137255549 17893.434103548527 34399.923310749233 83495.787396579981 55840.126382082701 35154.717275232077 84315.940330557525 66881.388255387545 73765.339639663696 26799.96239040792 25424.64424470067 22799.421867787838
leaf_count=57484 60136 67886 279304 107036 533704 246034 389503 223194 237842 50067 53914 122093 108799 63177 218440 626101 113421 217073 138198 49290 246274 242315 83043 35017 362614 94769 240554 38606 68607 49206
internal_value=0.0318778 0.0430045 0.019659 0.0265471 0.00976095 0.0342276 0.0216543 0.0141087 0.0511316 -0.00121502 0.0389137 0.0282004 0.0325924 0.0220848 -0.00356014 0.00851002 0.0538338 0.0358117 0.0246851 0.0300947 -0.000205192 0.0225608 0.0446888 0.04059 0.0129507 0.044421 0.0201452 0.0349238 0.0253351 0.0299038
internal_weight=1.94465e+06 1.01781e+06 926839 546518 380321 489345 357645 272414 528467 107907 275301 214043 124577 89466.5 99687.6 141333 372316 188873 265272 46184.9 82893.8 207752 156150 90994.8 92372.6 115656 131081 159645 69609.9 44185.3
internal_count=5423701 1489188 3934513 1516875 2417638 951979 1192766 1369153 537209 1048485 433323 518656 284096 234560 998418 905405 351263 324109 770016 112467 779978 631818 185946 118060 422750 148683 463748 284640 175297 106690
is_linear=0
shrinkage=0.05


Tree=23
num_leaves=31
num_cat=0
split_feature=13 10 13 10 13 9 10 0 7 10 0 9 8 0 10 13 0 10 8 0 10 9 10 9 10 5 3 5 9 7
split_gain=98280.7 28371.7 22647 9211.98 6476.04 5298.1 3788.16 5872.33 3295.3 2837.74 2709.08 2690.03 2626.26 2084.22 2057.64 1713.54 1583.56 1653.79 1555.46 1545.73 1523.05 1518.85 1488.09 1344.35 1245.86 1201.58 1150.49 1112.98 1074 1058.84
threshold=2.5000000000000004 2.5000000000000004 6.5000000000000009 1.5000000000000002 16.500000000000004 0.64218312014920731 6.5000000000000009 9.5000000000000018 2896.5000000000005 6.5000000000000009 8.5000000000000018 0.61269944008775534 8472.5000000000018 21.500000000000004 1.5000000000000002 44.500000000000007 56.500000000000007 19.500000000000004 44156.000000000007 36.500000000000007 1.5000000000000002 0.17868968779564801 1.5000000000000002 0.35746212076103828 2.5000000000000004 16.572948328267483 9.5000000000000018 18.167670682730925 0.15461234713091801 436.50000000000006
decision_type=2 2 2 2 2 2 2 2 2 2 2 2 2 2 2 2 2 2 2 2 2 2 2 2 2 2 2 2 2 2
left_child=1 5 3 11 8 10 7 -3 22 13 14 21 15 -5 26 29 -8 -18 24 -9 -7 -2 28 -12 -10 -23 -1 -25 -4 -6
right_child=2 6 4 9 12 20 16 19 18 -11 23 -13 -14 -15 -16 -17 17 -19 -20 -21 -22 25 -24 27 -26 -27 -28 -29 -30 -31
leaf_value=0.023066935501726227 -0.011849333404318659 0.052902899074130399 -0.024159932628951268 0.031849219436583177 -0.012065222192696384 0.035375503911420539 0.055834696923391061 0.04107492731042519 0.013899666892059305 0.040557693838084413 0.010283411284881158 0.024814300693614472 0.013080800896225819 0.021572048908504483 0.040005534515940799 -0.023123847090400326 0.028535446338354722 0.054420443144809996 0.039662604840888044 0.027191271516161564 0.044861695353429216 0.012696358942601885 0.013703501952959227 0.022787426346693451 0.024149038382680722 0.0229108820203681 0.032799248401817166 0.035626998621670701 0.0043143960075411793 0.0013842754873784921
leaf_weight=51271.71971398592 5377.8360823914409 145769.74164175987 3472.252157472074 155194.54292982817 20607.816387034953 96916.039831623435 190215.00070568919 137713.64789678156 89481.497832730412 63213.966001212597 17648.26908788085 96745.604191467166 24896.937440574169 72322.590646892786 61267.131556600332 11753.399433635175 11517.127684250474 13292.048840984702 8252.3450772315264 23463.54848317802 75101.556950062513 118655.16200333834 57184.628631949425 93075.549108877778 44341.9542966187 38015.170040138066 74474.875925943255 20616.847366034985 71568.07448527962 50480.078390151262
leaf_count=130411 45660 136316 40417 312558 232867 160212 163413 171830 429763 87642 65926 271500 170266 168558 86456 164462 16139 11647 23866 37864 91885 486923 221254 207191 129492 144034 170284 39614 524361 480890
internal_value=0.030298 0.0410828 0.0185781 0.0250784 0.00922819 0.0324468 0.0491959 0.0456308 0.013308 0.0311862 0.0286265 0.0182168 -0.00115903 0.0285823 0.0324919 -0.00543863 0.0542851 0.0424039 0.0185949 0.0390538 0.0395171 0.014278 0.00762725 0.0231227 0.0172958 0.0151749 0.028831 0.0251157 0.00299684 -0.00251463
internal_weight=1.94391e+06 1.01234e+06 931564 549525 382039 490372 521971 306947 274301 290731 318354 258794 107738 227517 187014 82841.3 215024 24809.2 142076 161177 172018 162048 132225 131341 133823 156670 125747 113692 75040.3 71087.9
internal_count=5423701 1489188 3934513 1516875 2417638 951979 537209 346010 1369153 568758 699882 948117 1048485 481116 387151 878219 191199 27786 583121 209694 252097 676617 786032 312731 559255 630957 300695 246805 564778 713757
is_linear=0
shrinkage=0.05


Tree=24
num_leaves=31
num_cat=0
split_feature=13 10 13 10 13 9 9 7 7 10 8 13 10 9 13 0 4 4 10 4 0 0 0 0 10 0 0 10 13 9
split_gain=91381.9 27676.5 20319.8 8628.9 5783.13 5004.23 3828.26 3183.64 2981.43 2458.47 2413.95 2290.87 2133.45 1981.86 1790.28 1756.75 2764.39 2001.84 1673.99 1578.03 2446.37 1511.06 1464.08 1433.69 1352.62 2384.91 1174.61 1160.25 1109.93 1093.64
threshold=2.5000000000000004 2.5000000000000004 6.5000000000000009 2.5000000000000004 16.500000000000004 0.56044841302628645 0.69713348665334995 9362.5000000000018 10549.500000000002 1.5000000000000002 14329.000000000002 1.5000000000000002 1.5000000000000002 0.30236657397214078 36.500000000000007 10.500000000000002 0.27714117338920902 0.50824629166213342 12.500000000000002 0.33288288288288292 12.500000000000002 5.5000000000000009 4.5000000000000009 56.500000000000007 5.5000000000000009 8.5000000000000018 49.500000000000007 4.5000000000000009 1.5000000000000002 0.6951190571071223
decision_type=2 2 2 2 2 2 2 2 2 2 2 2 2 2 2 2 2 2 2 2 2 2 2 2 2 2 2 2 2 2
left_child=1 5 3 7 8 15 11 13 12 28 14 24 -4 -2 27 16 -1 -17 23 21 -21 -15 -11 29 25 -3 -19 -6 -7 -5
right_child=2 6 4 18 10 9 -8 -9 -10 22 -12 -13 -14 19 -16 17 -18 26 -20 20 -22 -23 -24 -25 -26 -27 -28 -29 -30 -31
leaf_value=0.020619276157676166 0.0019793280971764447 0.050884336322492188 0.004458383591949249 0.02955875897806522 -0.002458955054566319 0.034305806794416742 0.053183219723814228 0.026285169716792713 0.020654578319836706 0.048361004920564943 0.01721543196933489 0.037935680113167565 0.014949881977304291 0.018879156009452648 -0.017065731910805834 0.0076393646835110317 0.035234375995662946 0.028163917447176823 0.04550790861535043 0.027345994278688741 0.0142040607395514 0.0058076013183236859 0.036595763282078052 0.014542072537527696 0.051154827398148972 0.037100972919023825 -0.00060752675577489595 0.019365204965736377 0.02611819126192071 0.039211450122510996
leaf_weight=64240.258664131165 22613.852842055261 58243.80005826056 106664.62861417979 115630.1253195703 64639.136118851602 104347.72788624465 182746.10216292739 110279.82478223741 80567.922966472805 38705.310380652547 15405.625240907073 102001.13859778643 88792.960665762424 43606.656829282641 20823.456512331963 27465.905297636986 65184.927558004856 35105.227425068617 21484.875808462501 70700.664871290326 70945.306278005242 44846.343775585294 83460.460591346025 12712.709845840931 104127.45457696915 68052.214953318238 3946.1549437791109 6723.4348409622908 68607.231912001967 39322.959208846092
leaf_count=165884 138629 54656 744770 210673 631840 167785 163612 278219 294723 42372 97937 134127 329660 133082 278090 80933 135704 85170 26182 214315 258019 170502 117811 26964 96753 88061 12430 40618 143890 60290
internal_value=0.0288146 0.039274 0.0175674 0.0237088 0.00872796 0.0307806 0.04737 0.0191968 0.0125608 0.0348934 -0.00110508 0.0441742 0.00922449 0.0161035 -0.0041667 0.0245861 0.0279802 0.0179822 0.0323678 0.0174916 0.0207637 0.0122518 0.0403233 0.030684 0.0469359 0.0434574 0.0252566 -0.000402789 0.031058 0.0320084
internal_weight=1.94199e+06 1.00623e+06 935760 552143 383617 491063 515171 362993 276026 295121 107592 332425 195458 252713 92186 195942 129425 66517.3 189151 230099 141646 88453 122166 167666 230423 126296 39051.4 71362.6 172955 154953
internal_count=5423701 1489188 3934513 1516875 2417638 951979 537209 1192766 1369153 471858 1048485 373597 1074430 914547 950548 480121 301588 178533 324109 775918 472334 303584 160183 297927 239470 142717 97600 672458 311675 270963
is_linear=0
shrinkage=0.05


Tree=25
num_leaves=31
num_cat=0
split_feature=13 10 13 10 9 10 10 0 9 0 10 9 10 0 4 0 4 1 0 10 0 0 4 0 10 0 6 13 0 0
split_gain=86357.2 27454.9 18800.4 9206.98 5056.72 4139.18 3897.68 5854.43 3654.2 3502.26 2747.21 2130.11 2031.82 1644.14 1559.07 2763.26 2179.03 1904.61 1468.75 1463.87 1737.96 1448.57 2342.01 1430.37 2323.61 1426.78 1420.74 1279.15 1265.08 1248.42
threshold=2.5000000000000004 2.5000000000000004 8.5000000000000018 2.5000000000000004 0.65160734617925098 2.5000000000000004 7.5000000000000009 13.500000000000002 0.61577924544843521 31.500000000000004 1.5000000000000002 0.27651033233094308 10.500000000000002 40.500000000000007 0.15815528921313182 5.5000000000000009 0.38625474033199353 13.262013729977118 4.5000000000000009 3.5000000000000004 4.5000000000000009 22.500000000000004 0.33288288288288292 37.500000000000007 20.500000000000004 58.500000000000007 4802.5000000000009 1.5000000000000002 7.5000000000000009 8.5000000000000018
decision_type=2 2 2 2 2 2 2 2 2 2 2 2 2 2 2 2 2 2 2 2 2 2 2 2 2 2 2 2 2 2
left_child=1 4 3 8 10 9 7 19 11 26 14 -2 13 -5 -1 -16 -17 -18 -12 20 -3 22 29 -8 -25 -9 -4 -6 -10 -13
right_child=2 6 5 12 27 -7 23 25 28 -11 18 21 -14 -15 15 16 17 -19 -20 -21 -22 -23 -24 24 -26 -27 -28 -29 -30 -31
leaf_value=0.013002449049810414 -0.0012696544125879725 0.053160914552396681 0.0017775031993182259 0.029609229753655143 0.039935504529750122 0.015814983692961259 0.05502786387611195 0.035569600728074274 0.028102823372583158 -0.0060438086382868421 0.041424208939625513 0.01349709259116187 0.040745307094675491 0.01753992839601215 0.033327970700205704 0.011033316017669156 0.017188521806909284 0.032795953722467332 0.028548967460541461 0.051554423077969848 0.038002320917631963 0.0062632536163720947 0.020897854225600976 0.036627120563716573 0.056293548471231837 0.012359316257503082 0.012495315292366057 0.030699925720486576 0.019183204026494351 -0.00056530921769435934
leaf_weight=37058.021761566401 22763.855619847775 28079.130315154791 60060.17314376682 153779.15490943193 100291.21741874516 73551.442074969411 115728.72884383798 123713.89737686515 66818.485835403204 81675.456510763615 29961.211371153593 66497.049833029509 33579.231820911169 34558.457303389907 57255.764499828219 43472.188924670219 39070.620950892568 39118.147617951035 84963.33261603117 116485.11961095035 57896.562986582518 42272.92496008426 121570.74558071792 33118.321869418025 27483.184470355511 6995.5942575037479 63729.513156190515 59874.015281572938 98138.685513406992 20694.355056136847
leaf_count=99339 154513 24820 493892 284264 131995 330308 96680 163853 156968 803367 38776 232180 44937 75804 122980 119055 104068 87725 145503 106963 70484 177063 433036 39594 22169 12936 363249 101807 295120 91874
internal_value=0.027404 0.0376266 0.0165192 0.0211153 0.0291901 0.00563644 0.0457578 0.0425763 0.0169175 0.00199278 0.0256601 0.0133757 0.0294148 0.0273946 0.0223368 0.0242702 0.0200075 0.024997 0.0319056 0.0479018 0.042953 0.0147037 0.0164129 0.0517691 0.045546 0.0343274 0.00729526 0.036483 0.0227962 0.0101595
internal_weight=1.94025e+06 1.00057e+06 939690 660673 491065 279017 509501 333170 438756 205465 330899 273799 221917 188338 215975 178917 121661 78188.8 114925 202461 85975.7 251035 208762 176330 60601.5 130709 123790 160165 164957 87191.4
internal_count=5425322 1488747 3936575 1945759 951248 1990816 537499 379056 1540754 1660508 717446 1088666 405005 360068 533167 433828 310848 191793 184279 202267 95304 934153 757090 158443 61763 176789 857141 233802 452088 324054
is_linear=0
shrinkage=0.05


Tree=26
num_leaves=31
num_cat=0
split_feature=13 10 13 10 9 13 10 0 10 10 10 0 4 0 9 4 9 0 0 0 10 0 0 5 1 10 0 9 8 10
split_gain=80341.4 26686.6 16980.2 8055.24 4722.71 4349.61 3839.07 5475.69 3033.28 2837.8 2829.83 2513.2 2471.02 2221.87 2015.17 1906.44 1714.13 1695.88 1672.68 1633.5 3024.22 1468.21 1432 1397.44 1059.89 1057.8 1222.08 1050.39 1046.3 1041.02
threshold=2.5000000000000004 2.5000000000000004 7.5000000000000009 1.5000000000000002 0.68286112550061562 30.500000000000004 6.5000000000000009 9.5000000000000018 2.5000000000000004 1.5000000000000002 5.5000000000000009 6.5000000000000009 0.1968455042225534 23.500000000000004 0.2658299444412624 0.33827187591454499 0.39466789707036637 15.500000000000002 4.5000000000000009 22.500000000000004 14.500000000000002 36.500000000000007 21.500000000000004 19.336021505376348 11.672619047619049 3.5000000000000004 4.5000000000000009 0.6951190571071223 429.50000000000006 1.5000000000000002
decision_type=2 2 2 2 2 2 2 2 2 2 2 2 2 2 2 2 2 2 2 2 2 2 2 2 2 2 2 2 2 2
left_child=1 4 3 11 9 8 7 25 14 16 13 12 -2 27 -4 -13 28 -17 -11 -8 -21 -9 -16 -18 -14 26 -3 -5 -1 -6
right_child=2 6 5 10 29 -7 19 21 -10 18 -12 15 24 -15 22 17 23 -19 -20 20 -22 -23 -24 -25 -26 -27 -28 -29 -30 -31
leaf_value=0.02036127730625148 0.010871105779724373 0.051449159990578155 -0.012124460962225466 0.024079220392946736 0.032302676236747388 -0.01027155886224649 0.054666534221927791 0.036121136203427037 0.016573125770566757 0.040237237200965524 0.033759674051811073 0.0023689517927035172 0.037650710692136401 0.015291770761754973 0.010921070732523413 0.0191069072734734 0.021873239845408284 0.0078588994369044093 0.027518312748906655 0.037490139482366069 0.053392687792711148 0.022529264954738712 0.00234710219296197 0.033256681949798077 0.022906142147346958 0.052021824747791538 0.037847344303020322 0.033562487031170464 0.004156326661704182 0.041863650894015975
leaf_weight=20075.375470519066 41778.083244219422 27575.576787024736 15484.064110472798 133818.07122203708 63622.311376690865 34843.464322734624 85252.332297950983 134905.67129816115 82019.426051713526 35201.604575276375 85841.521726742387 47915.241171874106 15789.749034069479 65030.637868210673 97000.683290757239 73479.60421423614 171758.70592933893 61607.04569670558 97297.435519978404 58557.527825668454 61081.643088310957 23300.261231094599 97798.235897652805 31980.151232928038 53433.311696112156 70450.599804118276 41166.73376275599 37348.961988985538 19770.774299740791 51529.199488908052
leaf_count=71685 136592 24820 156798 292935 100898 430143 70643 172120 305807 44889 128073 207333 43051 162336 560764 277370 373893 270149 163662 68678 51821 38009 735522 60659 162805 62628 48780 66897 73737 61825
internal_value=0.0260851 0.0360075 0.0156332 0.020522 0.0277212 0.00642704 0.0441114 0.0404832 0.00841757 0.0250085 0.025985 0.0145382 0.0204738 0.0231594 0.00523655 0.0109378 0.0218051 0.0139772 0.0308974 0.0493778 0.0456092 0.0341194 0.00661653 0.0236601 0.0262694 0.0477162 0.0433036 0.0261485 0.0123207 0.0365811
internal_weight=1.93671e+06 993526 943188 616042 491236 327146 502290 297399 292302 376084 322039 294003 111001 236198 210283 183002 243585 135087 132499 204892 119639 158206 194799 203739 69223.1 139193 68742.3 171167 39846.1 115152
internal_count=5425322 1488747 3936575 1747541 951248 2189034 537499 346357 1758891 788525 650241 1097300 342448 522168 1453084 754852 579974 547519 208551 191142 120499 210129 1296286 434552 205856 136228 73600 359832 145422 162723
is_linear=0
shrinkage=0.05


Tree=27
num_leaves=31
num_cat=0
split_feature=13 10 13 10 9 7 9 9 10 8 13 13 9 13 0 10 5 10 0 10 0 8 9 13 9 0 10 1 4 0
split_gain=74755.5 25882.5 15258.8 7471.98 4509.38 3974.24 3891.94 2990.78 2779.18 2429.38 2341.86 2214.48 1880.83 1831.33 1674.11 1665.94 1536.52 1513.6 1410.86 1383.95 1963.1 1333.8 1451.66 1303.13 1262.79 1244.64 1563.39 1042.24 1012.53 1672.31
threshold=2.5000000000000004 2.5000000000000004 7.5000000000000009 2.5000000000000004 0.49452263804837909 1325.5000000000002 0.69713348665334995 0.65160734617925098 1.5000000000000002 44156.000000000007 1.5000000000000002 25.500000000000004 0.30236657397214078 42.500000000000007 5.5000000000000009 11.500000000000002 16.476731601731604 3.5000000000000004 48.500000000000007 4.5000000000000009 5.5000000000000009 527.50000000000011 0.25154534136318435 1.5000000000000002 0.17868968779564801 18.500000000000004 11.500000000000002 16.919871794871799 0.1968455042225534 8.5000000000000018
decision_type=2 2 2 2 2 2 2 2 2 2 2 2 2 2 2 2 2 2 2 2 2 2 2 2 2 2 2 2 2 2
left_child=1 4 3 7 21 11 10 12 23 13 19 24 -2 17 -10 18 28 -7 -5 20 -3 -1 -23 27 -4 -21 -27 -6 -14 -30
right_child=2 6 5 15 8 9 -8 -9 14 -11 -12 -13 16 -15 -16 -17 -18 -19 -20 25 -22 22 -24 -25 -26 26 -28 -29 29 -31
leaf_value=0.023971717977739448 4.9275964629237224e-05 0.048788022953952341 -0.019559265290720777 0.027066966255204508 0.024175769212271714 0.0078702298473309982 0.04856632508476616 0.022443517818218947 0.040987801919919603 0.035976461708601512 0.032930576287768264 -0.016597851337785154 0.0038068319010392234 -0.01275553279004266 0.030072664495605736 0.038817755370341114 0.020590149436787816 0.018847905214073205 0.013487695275181023 0.051092825488913453 0.033065760376504022 -0.012540041487541981 0.015534948934786495 0.020903116029485424 0.0033036386731729941 0.034142006849198291 0.049352512977706695 0.033057462236039968 0.020022399274439429 0.0097321418256784541
leaf_weight=54644.848229140043 26032.563297815621 28010.70474730432 6464.6621893569827 159223.93093161285 64279.39096917212 152735.20027356595 173906.69669854641 112959.92134401202 59013.885173901916 8764.9755029901862 100014.2766084671 19619.216065824032 32247.025514118373 9160.3321967571974 86795.312234058976 26686.53438423574 68557.685753077269 39525.853586047888 21739.690997257829 56749.098956033587 68182.818066179752 4955.8144292235374 64915.086905375123 88591.344039440155 91852.202875003219 37104.047801539302 31014.410799175501 67944.700990825891 61978.825404450297 108776.19473449141
leaf_count=146691 162688 26117 70835 286825 114987 927249 163635 286728 70220 31030 134452 268302 114939 111864 130899 34590 218430 141084 46778 50347 88757 23439 162963 193708 638670 45931 28260 108341 192472 404091
internal_value=0.0248394 0.0344731 0.0148006 0.0194262 0.0263411 0.00608582 0.0425421 0.0155168 0.0291332 0.0102077 0.0392791 -0.0012603 0.0128876 0.0090864 0.0344904 0.0271555 0.0141183 0.0101271 0.0254356 0.0421513 0.0376439 0.0181201 0.0135436 0.0255957 0.00180033 0.0456237 0.0410674 0.0287397 0.0119326 0.0134672
internal_weight=1.93245e+06 986122 946325 618202 491140 328122 494982 410552 366625 210186 321075 117936 297592 201421 145809 207650 271560 192261 180964 221061 96193.5 124516 69870.9 220815 98316.9 124868 68118.5 132224 203002 170755
internal_count=5425322 1488747 3936575 1747541 951248 2189034 537499 1379348 618155 1211227 373864 977807 1092620 1180197 201119 368193 929932 1068333 333603 239412 114874 333093 186402 417036 709505 124538 74191 223328 711502 596563
is_linear=0
